-5	0.1	0.0891788	3.49192e-10
-5	0.6	0.472378	9.42746e-11
-5	1.1	0.738904	9.4491e-11
-5	1.6	0.921398	1.3054e-10
-5	2.1	1.07173	2.05207e-10
-5	2.6	1.20032	3.55418e-10
-5	3.1	1.3092	6.49784e-10
-5	3.6	1.39959	1.22194e-09
-5	4.1	1.47359	2.48648e-09
-5	4.6	1.53402	5.02285e-09
-5	5.1	1.58391	9.95181e-09
-5	5.6	1.62606	2.06863e-08
-5	6.1	1.66289	4.27462e-08
-5	6.6	1.69636	8.7187e-08
-5	7.1	1.72804	1.71924e-07
-5	7.6	1.75918	3.38486e-07
-5	8.1	1.79079	7.20707e-07
-5	8.6	1.82374	1.28518e-06
-5	9.1	1.8588	2.75008e-06
-5	9.6	1.89668	5.17521e-06
-5	10.1	1.93814	1.08261e-05
-5	10.6	1.98398	2.11124e-05
-5	11.1	2.03511	4.06162e-05
-5	11.6	2.09262	8.37062e-05
-5	12.1	2.15782	0.000162942
-5	12.6	2.23237	0.00023958
-5	13.1	2.31839	0.00056754
-5	13.6	2.41861	0.000986248
-5	14.1	2.53669	0.00188427
-5	14.6	2.67724	0.00383828
-5	15.1	2.84685	0.00680812
-5	15.6	3.05454	0.00676413
-5	16.1	3.3126	0.0325699
-5	16.6	3.63845	0.0519829
-5	17.1	4.05558	0.0997985
-5	17.6	4.58848	0.207506
-5	18.1	5.31344	0.0712394
-5	18.6	6.00772	0.747605
-5	19.1	7.30347	0.741221
-5	19.6	9.08048	0.765416
-5	20.1	11.6141	0.797699
-5	20.6	15.1109	0.886014
-5	21.1	20.2227	1.01295
-5	21.6	27.941	1.14442
-5	22.1	40.0268	1.25474
-5	22.6	59.5097	1.34626
-5	23.1	91.9556	1.42106
-5	23.6	147.976	1.48118
-5	24.1	248.655	1.52863
-5	24.6	437.843	1.56532
-5	25.1	811.538	1.593
-5	25.6	1592.3	1.61319
-5	26.1	3330.62	1.6272
-5	26.6	8380.54	2.3864
-5	27.1	26414.2	3.1612
-5	27.6	103867	3.4314
-5	28.1	381369	4.87839
-5	28.6	1.46307e+06	8.24767
-5	29.1	6.6619e+06	13.9726
-5	29.6	3.74313e+07	23.7277
-5	30.1	2.73826e+08	40.4023
-5	30.6	2.81658e+09	69.0052
-5	31.1	4.57409e+10	118.261
-5	31.6	1.41326e+12	203.448
-5	32.1	1.15482e+14	351.48
-5	32.6	4.87511e+16	610.062
-5	33.1	6.05195e+20	1064.34
-5	33.6	7.90677e+29	1867.38
-5	34.1	1	1
-5	34.6	1	1
-5	35.1	1	1
-5	35.6	1	1
-5	36.1	1	1
-5	36.6	1	1
-5	37.1	1	1
-5	37.6	1	1
-5	38.1	1	1
-5	38.6	1	1
-5	39.1	1	1
-5	39.6	1	1
-5	40.1	1	1
-4.5	0.1	0.102637	2.89531e-10
-4.5	0.6	0.475081	8.14641e-11
-4.5	1.1	0.692873	7.81969e-11
-4.5	1.6	0.834007	9.91844e-11
-4.5	2.1	0.945316	1.41609e-10
-4.5	2.6	1.03699	2.21373e-10
-4.5	3.1	1.11147	3.58858e-10
-4.5	3.6	1.17024	6.24032e-10
-4.5	4.1	1.2153	1.08973e-09
-4.5	4.6	1.24909	1.91394e-09
-4.5	5.1	1.27407	3.43688e-09
-4.5	5.6	1.29244	6.20634e-09
-4.5	6.1	1.30601	1.09306e-08
-4.5	6.6	1.31618	1.92805e-08
-4.5	7.1	1.32403	3.42997e-08
-4.5	7.6	1.33033	5.80586e-08
-4.5	8.1	1.33563	1.0111e-07
-4.5	8.6	1.34035	1.67537e-07
-4.5	9.1	1.34477	2.60541e-07
-4.5	9.6	1.3491	4.59286e-07
-4.5	10.1	1.35348	8.17112e-07
-4.5	10.6	1.35802	1.24843e-06
-4.5	11.1	1.3628	2.08053e-06
-4.5	11.6	1.36787	3.22388e-06
-4.5	12.1	1.37328	5.65754e-06
-4.5	12.6	1.37908	8.89797e-06
-4.5	13.1	1.38527	1.34864e-05
-4.5	13.6	1.3919	2.31797e-05
-4.5	14.1	1.39899	3.21216e-05
-4.5	14.6	1.40658	4.87284e-05
-4.5	15.1	1.41469	7.53306e-05
-4.5	15.6	1.42337	0.000136719
-4.5	16.1	1.43263	0.000205792
-4.5	16.6	1.44254	0.000329712
-4.5	17.1	1.45314	0.000505649
-4.5	17.6	1.46442	0.000639899
-4.5	18.1	1.47655	0.00114672
-4.5	18.6	1.48955	0.00171269
-4.5	19.1	1.50352	0.00163964
-4.5	19.6	1.51856	0.0037007
-4.5	20.1	1.53477	0.00524552
-4.5	20.6	1.55228	0.00787836
-4.5	21.1	1.57126	0.0112563
-4.5	21.6	1.59189	0.0164921
-4.5	22.1	1.61439	0.0355859
-4.5	22.6	1.639	0.0468528
-4.5	23.1	1.66622	0.0790814
-4.5	23.6	1.69629	0.102775
-4.5	24.1	1.73078	0.194785
-4.5	24.6	1.7683	0.210126
-4.5	25.1	1.81347	0.316268
-4.5	25.6	1.8689	0.496279
-4.5	26.1	1.95701	0.927513
-4.5	26.6	2.01523	1.07065
-4.5	27.1	2.08112	1.03151
-4.5	27.6	2.15501	0.983473
-4.5	28.1	2.23868	0.924232
-4.5	28.6	2.33834	0.869039
-4.5	29.1	2.45456	0.803467
-4.5	29.6	2.59716	0.75417
-4.5	30.1	2.76991	0.712736
-4.5	30.6	2.97711	0.661897
-4.5	31.1	3.22889	0.600385
-4.5	31.6	3.53922	0.526819
-4.5	32.1	3.92792	0.449032
-4.5	32.6	4.41653	0.626715
-4.5	33.1	4.97953	0.798409
-4.5	33.6	5.61987	0.915062
-4.5	34.1	6.38934	1.02357
-4.5	34.6	7.40944	1.22402
-4.5	35.1	8.70933	1.42453
-4.5	35.6	10.3833	1.62191
-4.5	36.1	12.5626	1.81306
-4.5	36.6	15.4319	1.99519
-4.5	37.1	19.2545	2.16593
-4.5	37.6	24.8708	2.46116
-4.5	38.1	34.7224	3.05431
-4.5	38.6	50.5425	3.56377
-4.5	39.1	70.8395	4.77333
-4.5	39.6	99.6684	6.64202
-4.5	40.1	143.087	9.21514
-4	0.1	0.112221	2.60613e-10
-4	0.6	0.466009	7.67122e-11
-4	1.1	0.670315	6.96578e-11
-4	1.6	0.791016	8.42704e-11
-4	2.1	0.884075	1.12714e-10
-4	2.6	0.959424	1.66271e-10
-4	3.1	1.01959	2.54397e-10
-4	3.6	1.06607	4.06147e-10
-4	4.1	1.10072	6.67281e-10
-4	4.6	1.12573	1.1094e-09
-4	5.1	1.14326	1.80858e-09
-4	5.6	1.1552	3.02912e-09
-4	6.1	1.1631	4.96667e-09
-4	6.6	1.16816	8.24157e-09
-4	7.1	1.17126	1.33333e-08
-4	7.6	1.17303	2.05534e-08
-4	8.1	1.17394	3.25857e-08
-4	8.6	1.1743	5.05324e-08
-4	9.1	1.17433	8.01153e-08
-4	9.6	1.1742	1.18071e-07
-4	10.1	1.174	1.7862e-07
-4	10.6	1.17381	2.82689e-07
-4	11.1	1.17366	4.17943e-07
-4	11.6	1.1736	6.12749e-07
-4	12.1	1.17364	8.82807e-07
-4	12.6	1.17378	1.33465e-06
-4	13.1	1.17404	1.79145e-06
-4	13.6	1.17441	2.57465e-06
-4	14.1	1.1749	3.86326e-06
-4	14.6	1.1755	5.58099e-06
-4	15.1	1.17621	6.8671e-06
-4	15.6	1.17702	1.08469e-05
-4	16.1	1.17794	1.53966e-05
-4	16.6	1.17896	1.56975e-05
-4	17.1	1.18007	2.33152e-05
-4	17.6	1.18128	2.89856e-05
-4	18.1	1.18257	4.27003e-05
-4	18.6	1.18395	7.06142e-05
-4	19.1	1.18542	9.12514e-05
-4	19.6	1.18697	0.00013114
-4	20.1	1.1886	0.000178289
-4	20.6	1.19032	0.000215192
-4	21.1	1.19211	0.000323698
-4	21.6	1.19398	0.000399971
-4	22.1	1.19593	0.000577196
-4	22.6	1.19797	0.000702841
-4	23.1	1.20008	0.00103027
-4	23.6	1.20228	0.00129432
-4	24.1	1.20455	0.00158667
-4	24.6	1.20691	0.00157795
-4	25.1	1.20936	0.00272566
-4	25.6	1.21189	0.0027343
-4	26.1	1.21452	0.00448558
-4	26.6	1.21724	0.00451258
-4	27.1	1.22005	0.00454397
-4	27.6	1.22297	0.0102654
-4	28.1	1.22598	0.0103305
-4	28.6	1.22912	0.0187123
-4	29.1	1.23236	0.0187379
-4	29.6	1.23572	0.03121
-4	30.1	1.23919	0.0309009
-4	30.6	1.2429	0.0502628
-4	31.1	1.24664	0.0500361
-4	31.6	1.25089	0.0876084
-4	32.1	1.25552	0.130329
-4	32.6	1.2597	0.127922
-4	33.1	1.2657	0.198843
-4	33.6	1.27467	0.316674
-4	34.1	1.27943	0.314355
-4	34.6	1.29509	0.501086
-4	35.1	1.30035	0.497847
-4	35.6	1.30582	0.494546
-4	36.1	1.38577	1.08372
-4	36.6	1.39167	1.07669
-4	37.1	1.45653	1.45233
-4	37.6	1.46534	1.44914
-4	38.1	1.47429	1.44547
-4	38.6	1.4834	1.44128
-4	39.1	1.49269	1.43655
-4	39.6	1.5022	1.43122
-4	40.1	1.51338	1.43005
-3.5	0.1	0.118177	2.46398e-10
-3.5	0.6	0.455969	7.47606e-11
-3.5	1.1	0.650291	6.56689e-11
-3.5	1.6	0.768098	7.58495e-11
-3.5	2.1	0.851641	9.81683e-11
-3.5	2.6	0.918744	1.37715e-10
-3.5	3.1	0.971923	2.05793e-10
-3.5	3.6	1.01264	3.17986e-10
-3.5	4.1	1.04264	4.96629e-10
-3.5	4.6	1.06394	7.81931e-10
-3.5	5.1	1.07851	1.24424e-09
-3.5	5.6	1.08809	1.976e-09
-3.5	6.1	1.09409	3.11882e-09
-3.5	6.6	1.09757	4.91605e-09
-3.5	7.1	1.09932	7.55944e-09
-3.5	7.6	1.09992	1.16087e-08
-3.5	8.1	1.09977	1.71441e-08
-3.5	8.6	1.09914	2.53717e-08
-3.5	9.1	1.09825	3.85093e-08
-3.5	9.6	1.09721	5.47549e-08
-3.5	10.1	1.09612	7.82479e-08
-3.5	10.6	1.09503	1.0902e-07
-3.5	11.1	1.09399	1.6236e-07
-3.5	11.6	1.09301	2.19628e-07
-3.5	12.1	1.09211	3.04513e-07
-3.5	12.6	1.0913	4.13853e-07
-3.5	13.1	1.09057	5.91288e-07
-3.5	13.6	1.08993	8.36979e-07
-3.5	14.1	1.08938	1.01674e-06
-3.5	14.6	1.0889	1.4833e-06
-3.5	15.1	1.08851	2.0453e-06
-3.5	15.6	1.08818	2.64836e-06
-3.5	16.1	1.08792	3.37898e-06
-3.5	16.6	1.08773	4.04158e-06
-3.5	17.1	1.08759	4.98578e-06
-3.5	17.6	1.08751	7.11406e-06
-3.5	18.1	1.08747	8.54436e-06
-3.5	18.6	1.08749	1.13842e-05
-3.5	19.1	1.08754	1.28419e-05
-3.5	19.6	1.08764	1.75251e-05
-3.5	20.1	1.08777	2.4155e-05
-3.5	20.6	1.08793	3.43748e-05
-3.5	21.1	1.08813	3.87562e-05
-3.5	21.6	1.08836	4.85456e-05
-3.5	22.1	1.08862	6.84889e-05
-3.5	22.6	1.0889	8.23194e-05
-3.5	23.1	1.08921	9.94252e-05
-3.5	23.6	1.08954	0.000133837
-3.5	24.1	1.08989	0.000171635
-3.5	24.6	1.09026	0.000208164
-3.5	25.1	1.09065	0.000249406
-3.5	25.6	1.09106	0.000282853
-3.5	26.1	1.09149	0.000358904
-3.5	26.6	1.09193	0.000444399
-3.5	27.1	1.09239	0.00056022
-3.5	27.6	1.09287	0.000570451
-3.5	28.1	1.09336	0.000766268
-3.5	28.6	1.09386	0.00078264
-3.5	29.1	1.09438	0.00112477
-3.5	29.6	1.09491	0.00114692
-3.5	30.1	1.09545	0.00116819
-3.5	30.6	1.09601	0.00203564
-3.5	31.1	1.09658	0.00205353
-3.5	31.6	1.09716	0.00329578
-3.5	32.1	1.09775	0.00330512
-3.5	32.6	1.09835	0.0033136
-3.5	33.1	1.09896	0.00339538
-3.5	33.6	1.09959	0.00692353
-3.5	34.1	1.10022	0.00684796
-3.5	34.6	1.10086	0.00847758
-3.5	35.1	1.10153	0.0124903
-3.5	35.6	1.1022	0.0118108
-3.5	36.1	1.10288	0.0154319
-3.5	36.6	1.10357	0.0190908
-3.5	37.1	1.10429	0.0244468
-3.5	37.6	1.105	0.0225652
-3.5	38.1	1.10573	0.0238777
-3.5	38.6	1.10655	0.0419849
-3.5	39.1	1.10729	0.0408688
-3.5	39.6	1.10805	0.0398097
-3.5	40.1	1.10906	0.0714592
-3	0.1	0.120962	2.40131e-10
-3	0.6	0.44442	7.39005e-11
-3	1.1	0.630888	6.39477e-11
-3	1.6	0.7478	7.15878e-11
-3	2.1	0.832487	9.05188e-11
-3	2.6	0.896131	1.25577e-10
-3	3.1	0.945578	1.81674e-10
-3	3.6	0.983289	2.72153e-10
-3	4.1	1.01093	4.12336e-10
-3	4.6	1.03041	6.40075e-10
-3	5.1	1.04361	9.88718e-10
-3	5.6	1.05215	1.53819e-09
-3	6.1	1.05736	2.3543e-09
-3	6.6	1.06024	3.5577e-09
-3	7.1	1.06152	5.43657e-09
-3	7.6	1.06175	8.11418e-09
-3	8.1	1.0613	1.19302e-08
-3	8.6	1.06042	1.72261e-08
-3	9.1	1.0593	2.43237e-08
-3	9.6	1.05806	3.4396e-08
-3	10.1	1.05678	4.76051e-08
-3	10.6	1.05551	6.75324e-08
-3	11.1	1.05428	9.25186e-08
-3	11.6	1.05312	1.30831e-07
-3	12.1	1.05204	1.79093e-07
-3	12.6	1.05104	2.34504e-07
-3	13.1	1.05012	2.92874e-07
-3	13.6	1.04928	4.00132e-07
-3	14.1	1.04852	5.38736e-07
-3	14.6	1.04783	7.09572e-07
-3	15.1	1.04721	7.01531e-07
-3	15.6	1.04666	9.93342e-07
-3	16.1	1.04617	1.5327e-06
-3	16.6	1.04573	1.6891e-06
-3	17.1	1.04534	2.14622e-06
-3	17.6	1.04501	2.80628e-06
-3	18.1	1.04471	3.4941e-06
-3	18.6	1.04446	4.44284e-06
-3	19.1	1.04424	6.06419e-06
-3	19.6	1.04405	7.37044e-06
-3	20.1	1.0439	9.14319e-06
-3	20.6	1.04377	1.09856e-05
-3	21.1	1.04367	1.3931e-05
-3	21.6	1.04359	1.70127e-05
-3	22.1	1.04353	1.96628e-05
-3	22.6	1.04349	2.57502e-05
-3	23.1	1.04347	2.66575e-05
-3	23.6	1.04347	3.34789e-05
-3	24.1	1.04349	4.10465e-05
-3	24.6	1.04351	5.09044e-05
-3	25.1	1.04356	5.67745e-05
-3	25.6	1.04361	7.33285e-05
-3	26.1	1.04367	7.31145e-05
-3	26.6	1.04375	9.85335e-05
-3	27.1	1.04383	9.7659e-05
-3	27.6	1.04393	0.000151839
-3	28.1	1.04403	0.000147327
-3	28.6	1.04414	0.000136847
-3	29.1	1.04426	0.000208101
-3	29.6	1.04438	0.000201303
-3	30.1	1.04451	0.000195264
-3	30.6	1.04464	0.000157864
-3	31.1	1.04478	0.000153927
-3	31.6	1.04493	0.000150077
-3	32.1	1.04508	0.000146317
-3	32.6	1.04523	0.000142639
-3	33.1	1.04539	0.000800188
-3	33.6	1.04555	0.000525296
-3	34.1	1.04571	0.00111388
-3	34.6	1.04588	0.00109474
-3	35.1	1.04605	0.00151932
-3	35.6	1.04622	0.00147392
-3	36.1	1.0464	0.00152718
-3	36.6	1.04658	0.00205196
-3	37.1	1.04677	0.002512
-3	37.6	1.04695	0.00294668
-3	38.1	1.04714	0.00322556
-3	38.6	1.04733	0.00278361
-3	39.1	1.04752	0.0027488
-3	39.6	1.04772	0.00314066
-3	40.1	1.04791	0.00351448
-2.5	0.1	0.121065	2.3462e-10
-2.5	0.6	0.430845	7.56381e-11
-2.5	1.1	0.612389	6.42444e-11
-2.5	1.6	0.730605	6.99943e-11
-2.5	2.1	0.818157	8.72735e-11
-2.5	2.6	0.884848	1.16197e-10
-2.5	3.1	0.934432	1.662e-10
-2.5	3.6	0.969803	2.47725e-10
-2.5	4.1	0.993911	3.71762e-10
-2.5	4.6	1.01138	5.62948e-10
-2.5	5.1	1.02386	8.58954e-10
-2.5	5.6	1.03188	1.32525e-09
-2.5	6.1	1.03672	1.9891e-09
-2.5	6.6	1.03933	2.96302e-09
-2.5	7.1	1.04043	4.46525e-09
-2.5	7.6	1.04052	6.48073e-09
-2.5	8.1	1.03998	9.31272e-09
-2.5	8.6	1.03903	1.32958e-08
-2.5	9.1	1.03787	1.88218e-08
-2.5	9.6	1.03659	2.67101e-08
-2.5	10.1	1.03528	3.66149e-08
-2.5	10.6	1.03398	4.94561e-08
-2.5	11.1	1.03273	6.96409e-08
-2.5	11.6	1.03155	9.31843e-08
-2.5	12.1	1.03044	1.20916e-07
-2.5	12.6	1.02941	1.64102e-07
-2.5	13.1	1.02846	2.01264e-07
-2.5	13.6	1.02759	2.72306e-07
-2.5	14.1	1.0268	3.64207e-07
-2.5	14.6	1.02607	4.14947e-07
-2.5	15.1	1.02542	5.34215e-07
-2.5	15.6	1.02482	6.01345e-07
-2.5	16.1	1.02429	9.12602e-07
-2.5	16.6	1.0238	9.53524e-07
-2.5	17.1	1.02337	1.26013e-06
-2.5	17.6	1.02298	1.68445e-06
-2.5	18.1	1.02263	2.23003e-06
-2.5	18.6	1.02231	2.80162e-06
-2.5	19.1	1.02204	3.35458e-06
-2.5	19.6	1.02179	3.82744e-06
-2.5	20.1	1.02157	4.91995e-06
-2.5	20.6	1.02138	5.32227e-06
-2.5	21.1	1.02121	6.24749e-06
-2.5	21.6	1.02106	8.14408e-06
-2.5	22.1	1.02093	9.16837e-06
-2.5	22.6	1.02082	1.15601e-05
-2.5	23.1	1.02073	1.43745e-05
-2.5	23.6	1.02065	1.4738e-05
-2.5	24.1	1.02059	1.83309e-05
-2.5	24.6	1.02053	2.43321e-05
-2.5	25.1	1.02049	2.42852e-05
-2.5	25.6	1.02047	2.94917e-05
-2.5	26.1	1.02045	3.59044e-05
-2.5	26.6	1.02044	4.13178e-05
-2.5	27.1	1.02044	5.20312e-05
-2.5	27.6	1.02044	5.09772e-05
-2.5	28.1	1.02046	4.99761e-05
-2.5	28.6	1.02048	8.20557e-05
-2.5	29.1	1.0205	7.86574e-05
-2.5	29.6	1.02053	0.000100176
-2.5	30.1	1.02057	0.000130128
-2.5	30.6	1.02061	0.000126995
-2.5	31.1	1.02065	0.000123943
-2.5	31.6	1.0207	0.000121213
-2.5	32.1	1.02075	0.000119119
-2.5	32.6	1.02081	0.000117039
-2.5	33.1	1.02086	0.000102087
-2.5	33.6	1.02092	0.000320395
-2.5	34.1	1.02099	0.000316623
-2.5	34.6	1.02105	0.000312643
-2.5	35.1	1.02112	7.06359e-05
-2.5	35.6	1.02119	0.000419593
-2.5	36.1	1.02126	0.000518175
-2.5	36.6	1.02133	0.000597373
-2.5	37.1	1.02141	0.000749775
-2.5	37.6	1.02149	0.00086821
-2.5	38.1	1.02156	0.000878045
-2.5	38.6	1.02164	0.00108591
-2.5	39.1	1.02172	0.00103488
-2.5	39.6	1.0218	0.00131382
-2.5	40.1	1.02188	0.000863503
-2	0.1	0.118922	2.42537e-10
-2	0.6	0.41513	7.77919e-11
-2	1.1	0.593436	6.46919e-11
-2	1.6	0.714483	6.97473e-11
-2	2.1	0.806445	8.43503e-11
-2	2.6	0.87762	1.13097e-10
-2	3.1	0.930974	1.58041e-10
-2	3.6	0.969076	2.31059e-10
-2	4.1	0.994881	3.48895e-10
-2	4.6	1.01138	5.23581e-10
-2	5.1	1.02121	7.8752e-10
-2	5.6	1.02646	1.18268e-09
-2	6.1	1.02868	1.77096e-09
-2	6.6	1.02899	2.66352e-09
-2	7.1	1.02822	3.93637e-09
-2	7.6	1.02827	5.67976e-09
-2	8.1	1.02769	8.1562e-09
-2	8.6	1.02673	1.15012e-08
-2	9.1	1.02556	1.6075e-08
-2	9.6	1.02428	2.26623e-08
-2	10.1	1.02298	3.09233e-08
-2	10.6	1.02169	4.17005e-08
-2	11.1	1.02045	5.74774e-08
-2	11.6	1.01927	7.27202e-08
-2	12.1	1.01817	9.81178e-08
-2	12.6	1.01715	1.30519e-07
-2	13.1	1.01621	1.69013e-07
-2	13.6	1.01534	2.21752e-07
-2	14.1	1.01455	2.78775e-07
-2	14.6	1.01383	3.40458e-07
-2	15.1	1.01318	3.8336e-07
-2	15.6	1.01258	4.71528e-07
-2	16.1	1.01204	6.57529e-07
-2	16.6	1.01156	6.86241e-07
-2	17.1	1.01112	9.42468e-07
-2	17.6	1.01072	1.31615e-06
-2	18.1	1.01036	1.49974e-06
-2	18.6	1.01004	1.75256e-06
-2	19.1	1.00975	2.18046e-06
-2	19.6	1.0095	2.83035e-06
-2	20.1	1.00927	2.91011e-06
-2	20.6	1.00906	3.3736e-06
-2	21.1	1.00888	4.36829e-06
-2	21.6	1.00871	5.67299e-06
-2	22.1	1.00857	6.76918e-06
-2	22.6	1.00844	6.94705e-06
-2	23.1	1.00833	9.07275e-06
-2	23.6	1.00824	1.06966e-05
-2	24.1	1.00816	1.26029e-05
-2	24.6	1.00809	1.57816e-05
-2	25.1	1.00803	1.57133e-05
-2	25.6	1.00798	1.9208e-05
-2	26.1	1.00794	2.35978e-05
-2	26.6	1.00791	2.80394e-05
-2	27.1	1.00788	2.76882e-05
-2	27.6	1.00787	3.25224e-05
-2	28.1	1.00786	3.38144e-05
-2	28.6	1.00786	4.27163e-05
-2	29.1	1.00786	4.1661e-05
-2	29.6	1.00787	6.18148e-05
-2	30.1	1.00788	5.94228e-05
-2	30.6	1.00789	7.85472e-05
-2	31.1	1.00791	7.63579e-05
-2	31.6	1.00793	0.000103202
-2	32.1	1.00796	0.000108639
-2	32.6	1.00799	0.000107402
-2	33.1	1.00802	8.07869e-05
-2	33.6	1.00805	7.89611e-05
-2	34.1	1.00809	7.72444e-05
-2	34.6	1.00813	7.56404e-05
-2	35.1	1.00817	7.41162e-05
-2	35.6	1.00821	0.000203159
-2	36.1	1.00825	0.000236402
-2	36.6	1.0083	0.000240925
-2	37.1	1.00835	0.000283358
-2	37.6	1.00839	0.000297333
-2	38.1	1.00844	0.000309574
-2	38.6	1.00849	0.000300144
-2	39.1	1.00854	0.000293452
-2	39.6	1.00859	0.000378715
-2	40.1	1.00864	0.000713555
-1.5	0.1	0.114898	2.51803e-10
-1.5	0.6	0.397324	8.01393e-11
-1.5	1.1	0.573264	6.63445e-11
-1.5	1.6	0.698165	6.99986e-11
-1.5	2.1	0.795743	8.41173e-11
-1.5	2.6	0.872632	1.09267e-10
-1.5	3.1	0.930849	1.52693e-10
-1.5	3.6	0.972546	2.20093e-10
-1.5	4.1	1.00066	3.26227e-10
-1.5	4.6	1.01839	4.97378e-10
-1.5	5.1	1.02863	7.38898e-10
-1.5	5.6	1.03374	1.12828e-09
-1.5	6.1	1.03549	1.65847e-09
-1.5	6.6	1.03513	2.48445e-09
-1.5	7.1	1.0335	3.56614e-09
-1.5	7.6	1.03118	5.31664e-09
-1.5	8.1	1.02853	7.47004e-09
-1.5	8.6	1.02579	1.04086e-08
-1.5	9.1	1.0231	1.50303e-08
-1.5	9.6	1.02054	2.06596e-08
-1.5	10.1	1.01814	2.6833e-08
-1.5	10.6	1.01594	3.75955e-08
-1.5	11.1	1.01394	4.95985e-08
-1.5	11.6	1.01212	6.71798e-08
-1.5	12.1	1.01096	8.53014e-08
-1.5	12.6	1.00995	1.14542e-07
-1.5	13.1	1.00902	1.43761e-07
-1.5	13.6	1.00816	1.89889e-07
-1.5	14.1	1.00738	2.33527e-07
-1.5	14.6	1.00667	3.10037e-07
-1.5	15.1	1.00602	3.82641e-07
-1.5	15.6	1.00543	4.7936e-07
-1.5	16.1	1.0049	5.13659e-07
-1.5	16.6	1.00442	6.83405e-07
-1.5	17.1	1.00398	7.13712e-07
-1.5	17.6	1.00359	1.00401e-06
-1.5	18.1	1.00323	1.10933e-06
-1.5	18.6	1.00291	1.36521e-06
-1.5	19.1	1.00262	1.72085e-06
-1.5	19.6	1.00237	2.11721e-06
-1.5	20.1	1.00214	2.56934e-06
-1.5	20.6	1.00193	3.16585e-06
-1.5	21.1	1.00175	3.13239e-06
-1.5	21.6	1.00158	4.03653e-06
-1.5	22.1	1.00144	5.01514e-06
-1.5	22.6	1.00131	5.14231e-06
-1.5	23.1	1.0012	6.36953e-06
-1.5	23.6	1.0011	7.05163e-06
-1.5	24.1	1.00101	8.66752e-06
-1.5	24.6	1.00094	1.08655e-05
-1.5	25.1	1.00087	1.33101e-05
-1.5	25.6	1.00082	1.2835e-05
-1.5	26.1	1.00078	1.63504e-05
-1.5	26.6	1.00074	2.02575e-05
-1.5	27.1	1.00071	2.44912e-05
-1.5	27.6	1.00069	2.42584e-05
-1.5	28.1	1.00068	2.93663e-05
-1.5	28.6	1.00067	2.9459e-05
-1.5	29.1	1.00066	3.66283e-05
-1.5	29.6	1.00066	3.572e-05
-1.5	30.1	1.00067	5.22006e-05
-1.5	30.6	1.00068	5.05783e-05
-1.5	31.1	1.00069	4.97056e-05
-1.5	31.6	1.0007	6.70128e-05
-1.5	32.1	1.00072	6.55482e-05
-1.5	32.6	1.00075	9.49123e-05
-1.5	33.1	1.00077	7.04827e-05
-1.5	33.6	1.0008	6.93908e-05
-1.5	34.1	1.00082	6.84082e-05
-1.5	34.6	1.00086	7.01531e-05
-1.5	35.1	1.00089	0.000118683
-1.5	35.6	1.00092	0.000141751
-1.5	36.1	1.00096	0.000178772
-1.5	36.6	1.00099	0.000170498
-1.5	37.1	1.00103	0.000248698
-1.5	37.6	1.00107	0.000271464
-1.5	38.1	1.00111	0.000268431
-1.5	38.6	1.00115	0.00025974
-1.5	39.1	1.00119	0.00026078
-1.5	39.6	1.00123	0.000370688
-1.5	40.1	1.00126	0.000397392
-1	0.1	0.109291	2.71426e-10
-1	0.6	0.37753	8.38962e-11
-1	1.1	0.55148	6.81716e-11
-1	1.6	0.680864	7.0831e-11
-1	2.1	0.785064	8.33492e-11
-1	2.6	0.868819	1.0937e-10
-1	3.1	0.932988	1.49328e-10
-1	3.6	0.979162	2.17007e-10
-1	4.1	1.01021	3.16982e-10
-1	4.6	1.02954	4.75492e-10
-1	5.1	1.0404	7.20257e-10
-1	5.6	1.04543	1.05444e-09
-1	6.1	1.04667	1.55513e-09
-1	6.6	1.04554	2.31706e-09
-1	7.1	1.04302	3.39057e-09
-1	7.6	1.03977	5.03383e-09
-1	8.1	1.0362	7.08017e-09
-1	8.6	1.03258	9.77014e-09
-1	9.1	1.02906	1.38999e-08
-1	9.6	1.02573	1.89939e-08
-1	10.1	1.02263	2.55018e-08
-1	10.6	1.01978	3.49116e-08
-1	11.1	1.01719	4.68447e-08
-1	11.6	1.01484	5.9423e-08
-1	12.1	1.01272	7.84579e-08
-1	12.6	1.01081	1.04183e-07
-1	13.1	1.0091	1.38555e-07
-1	13.6	1.00756	1.69817e-07
-1	14.1	1.00619	2.06996e-07
-1	14.6	1.00495	2.75608e-07
-1	15.1	1.00385	3.54322e-07
-1	15.6	1.00286	4.22838e-07
-1	16.1	1.00198	5.11242e-07
-1	16.6	1.00119	5.78686e-07
-1	17.1	1.00049	7.72609e-07
-1	17.6	0.999854	1.00488e-06
-1	18.1	0.99929	1.13028e-06
-1	18.6	0.998787	1.3761e-06
-1	19.1	0.998337	1.57749e-06
-1	19.6	0.998043	2.02771e-06
-1	20.1	0.997814	2.47683e-06
-1	20.6	0.997609	2.40693e-06
-1	21.1	0.997426	3.06866e-06
-1	21.6	0.997262	3.84466e-06
-1	22.1	0.997118	3.63404e-06
-1	22.6	0.99699	4.90204e-06
-1	23.1	0.996877	5.36008e-06
-1	23.6	0.996778	7.42292e-06
-1	24.1	0.996692	8.77553e-06
-1	24.6	0.996617	9.49548e-06
-1	25.1	0.996553	1.08027e-05
-1	25.6	0.996499	1.16992e-05
-1	26.1	0.996453	1.51469e-05
-1	26.6	0.996416	1.50156e-05
-1	27.1	0.996386	1.88003e-05
-1	27.6	0.996364	2.04287e-05
-1	28.1	0.996348	2.69194e-05
-1	28.6	0.996337	2.71356e-05
-1	29.1	0.996331	3.38587e-05
-1	29.6	0.996329	3.30559e-05
-1	30.1	0.996332	3.2742e-05
-1	30.6	0.996339	4.74328e-05
-1	31.1	0.99635	4.67884e-05
-1	31.6	0.996363	4.62678e-05
-1	32.1	0.99638	6.19348e-05
-1	32.6	0.996399	6.08275e-05
-1	33.1	0.996421	6.64174e-05
-1	33.6	0.996445	6.55225e-05
-1	34.1	0.996471	6.46657e-05
-1	34.6	0.996499	6.38332e-05
-1	35.1	0.996529	0.000116642
-1	35.6	0.996561	0.000141413
-1	36.1	0.996594	0.000106683
-1	36.6	0.996628	0.000164213
-1	37.1	0.99666	0.00016155
-1	37.6	0.996696	0.000166024
-1	38.1	0.996734	0.00024491
-1	38.6	0.996772	0.00023497
-1	39.1	0.99681	0.000236482
-1	39.6	0.996838	0.00026833
-1	40.1	0.996878	0.000321281
-0.5	0.1	0.102354	2.85397e-10
-0.5	0.6	0.355855	8.98289e-11
-0.5	1.1	0.527799	7.14867e-11
-0.5	1.6	0.662045	7.24467e-11
-0.5	2.1	0.773745	8.4835e-11
-0.5	2.6	0.865512	1.08259e-10
-0.5	3.1	0.936789	1.47972e-10
-0.5	3.6	0.988414	2.11511e-10
-0.5	4.1	1.02309	3.09711e-10
-0.5	4.6	1.04447	4.55977e-10
-0.5	5.1	1.05613	6.84065e-10
-0.5	5.6	1.06113	1.03769e-09
-0.5	6.1	1.06179	1.55786e-09
-0.5	6.6	1.05977	2.25992e-09
-0.5	7.1	1.0562	3.3386e-09
-0.5	7.6	1.05185	4.84713e-09
-0.5	8.1	1.04719	6.91658e-09
-0.5	8.6	1.04251	9.41013e-09
-0.5	9.1	1.038	1.33802e-08
-0.5	9.6	1.03375	1.84357e-08
-0.5	10.1	1.02981	2.53578e-08
-0.5	10.6	1.0262	3.25253e-08
-0.5	11.1	1.02291	4.58333e-08
-0.5	11.6	1.01992	5.75595e-08
-0.5	12.1	1.01722	7.52002e-08
-0.5	12.6	1.01479	9.94336e-08
-0.5	13.1	1.01261	1.32223e-07
-0.5	13.6	1.01064	1.66403e-07
-0.5	14.1	1.00887	2.11724e-07
-0.5	14.6	1.00728	2.67875e-07
-0.5	15.1	1.00585	3.36594e-07
-0.5	15.6	1.00456	3.90387e-07
-0.5	16.1	1.00341	4.91242e-07
-0.5	16.6	1.00237	4.97786e-07
-0.5	17.1	1.00143	6.80767e-07
-0.5	17.6	1.00059	7.56072e-07
-0.5	18.1	0.99983	1.03152e-06
-0.5	18.6	0.999146	1.12065e-06
-0.5	19.1	0.998531	1.42178e-06
-0.5	19.6	0.997976	1.94494e-06
-0.5	20.1	0.997476	2.31051e-06
-0.5	20.6	0.997026	2.72619e-06
-0.5	21.1	0.99662	3.29721e-06
-0.5	21.6	0.996255	3.20509e-06
-0.5	22.1	0.995926	3.82031e-06
-0.5	22.6	0.99563	4.80097e-06
-0.5	23.1	0.995364	4.57553e-06
-0.5	23.6	0.995125	5.82352e-06
-0.5	24.1	0.994911	7.37212e-06
-0.5	24.6	0.994719	9.49235e-06
-0.5	25.1	0.994548	9.58033e-06
-0.5	25.6	0.994395	1.23821e-05
-0.5	26.1	0.99426	1.18617e-05
-0.5	26.6	0.994139	1.52531e-05
-0.5	27.1	0.994033	1.50589e-05
-0.5	27.6	0.993939	1.88543e-05
-0.5	28.1	0.993858	2.40477e-05
-0.5	28.6	0.993788	2.7289e-05
-0.5	29.1	0.993728	2.62467e-05
-0.5	29.6	0.993675	3.22074e-05
-0.5	30.1	0.993631	3.19562e-05
-0.5	30.6	0.993595	3.21974e-05
-0.5	31.1	0.993565	4.54574e-05
-0.5	31.6	0.993542	4.52083e-05
-0.5	32.1	0.993551	6.02503e-05
-0.5	32.6	0.993569	5.91735e-05
-0.5	33.1	0.993589	6.43128e-05
-0.5	33.6	0.993612	6.34866e-05
-0.5	34.1	0.993637	6.2694e-05
-0.5	34.6	0.993663	6.19214e-05
-0.5	35.1	0.993692	0.000118405
-0.5	35.6	0.993722	9.80081e-05
-0.5	36.1	0.993754	0.000119954
-0.5	36.6	0.993784	0.000160699
-0.5	37.1	0.993818	0.000153226
-0.5	37.6	0.993852	0.000155858
-0.5	38.1	0.993888	0.000145575
-0.5	38.6	0.993925	0.000171376
-0.5	39.1	0.993961	0.000178969
-0.5	39.6	0.993988	0.000216222
-0.5	40.1	0.994027	0.000315846
0	0.1	0.0942989	3.05399e-10
0	0.6	0.332386	9.5767e-11
0	1.1	0.501987	7.45339e-11
0	1.6	0.641306	7.48798e-11
0	2.1	0.761298	8.6278e-11
0	2.6	0.862261	1.09035e-10
0	3.1	0.941929	1.4746e-10
0	3.6	1.00013	2.08614e-10
0	4.1	1.03927	3.01324e-10
0	4.6	1.06318	4.4927e-10
0	5.1	1.0759	6.74459e-10
0	5.6	1.08091	9.93441e-10
0	6.1	1.08091	1.52095e-09
0	6.6	1.07783	2.23477e-09
0	7.1	1.07302	3.259e-09
0	7.6	1.06734	4.6961e-09
0	8.1	1.06136	6.63077e-09
0	8.6	1.05542	9.24081e-09
0	9.1	1.04973	1.30515e-08
0	9.6	1.04438	1.79908e-08
0	10.1	1.03943	2.46202e-08
0	10.6	1.03489	3.33834e-08
0	11.1	1.03076	4.44004e-08
0	11.6	1.02701	5.57706e-08
0	12.1	1.02362	7.2459e-08
0	12.6	1.02056	9.73705e-08
0	13.1	1.0178	1.28567e-07
0	13.6	1.01532	1.63685e-07
0	14.1	1.01308	2.06782e-07
0	14.6	1.01106	2.55401e-07
0	15.1	1.00924	3.13551e-07
0	15.6	1.0076	3.89357e-07
0	16.1	1.00611	4.86169e-07
0	16.6	1.00477	4.93142e-07
0	17.1	1.00356	6.40721e-07
0	17.6	1.00247	8.37763e-07
0	18.1	1.00148	1.0367e-06
0	18.6	1.00058	1.23564e-06
0	19.1	0.999766	1.46217e-06
0	19.6	0.999028	1.94307e-06
0	20.1	0.998358	1.96974e-06
0	20.6	0.99775	2.39305e-06
0	21.1	0.997198	2.76714e-06
0	21.6	0.996696	3.37111e-06
0	22.1	0.996241	4.0619e-06
0	22.6	0.995826	5.08628e-06
0	23.1	0.99545	5.18055e-06
0	23.6	0.995106	6.40461e-06
0	24.1	0.994796	7.19103e-06
0	24.6	0.994514	9.26102e-06
0	25.1	0.994258	8.63333e-06
0	25.6	0.994026	1.12849e-05
0	26.1	0.993815	1.36987e-05
0	26.6	0.993624	1.61924e-05
0	27.1	0.993451	1.72852e-05
0	27.6	0.993294	2.09446e-05
0	28.1	0.993153	2.21532e-05
0	28.6	0.993026	2.15373e-05
0	29.1	0.992913	2.72484e-05
0	29.6	0.992811	3.25921e-05
0	30.1	0.992721	3.64032e-05
0	30.6	0.992639	3.46521e-05
0	31.1	0.992566	3.30753e-05
0	31.6	0.992502	4.73798e-05
0	32.1	0.992446	4.55354e-05
0	32.6	0.992397	6.13898e-05
0	33.1	0.992355	5.96473e-05
0	33.6	0.992318	5.80449e-05
0	34.1	0.992288	8.64281e-05
0	34.6	0.992261	5.99267e-05
0	35.1	0.99224	5.861e-05
0	35.6	0.992224	5.79845e-05
0	36.1	0.992211	0.000106867
0	36.6	0.992202	0.000132482
0	37.1	0.992198	0.000138455
0	37.6	0.992196	0.000101348
0	38.1	0.992196	0.000184118
0	38.6	0.9922	0.000194924
0	39.1	0.992206	0.000184861
0	39.6	0.992215	0.000236236
0	40.1	0.992225	0.00023999
0.5	0.1	0.0853125	3.44079e-10
0.5	0.6	0.307165	1.02738e-10
0.5	1.1	0.473825	7.89237e-11
0.5	1.6	0.618302	7.79858e-11
0.5	2.1	0.747335	8.80237e-11
0.5	2.6	0.858761	1.09457e-10
0.5	3.1	0.948286	1.46791e-10
0.5	3.6	1.01439	2.06371e-10
0.5	4.1	1.059	2.97553e-10
0.5	4.6	1.08609	4.4415e-10
0.5	5.1	1.10017	6.67743e-10
0.5	5.6	1.10524	9.83421e-10
0.5	6.1	1.10446	1.47263e-09
0.5	6.6	1.10013	2.2022e-09
0.5	7.1	1.0938	3.18619e-09
0.5	7.6	1.08653	4.63215e-09
0.5	8.1	1.07895	6.48556e-09
0.5	8.6	1.07148	9.47077e-09
0.5	9.1	1.06434	1.29005e-08
0.5	9.6	1.05766	1.82444e-08
0.5	10.1	1.05149	2.41102e-08
0.5	10.6	1.04583	3.3235e-08
0.5	11.1	1.04068	4.48957e-08
0.5	11.6	1.03601	5.83661e-08
0.5	12.1	1.03179	7.57499e-08
0.5	12.6	1.02797	9.90844e-08
0.5	13.1	1.02452	1.30287e-07
0.5	13.6	1.02141	1.64703e-07
0.5	14.1	1.0186	1.97092e-07
0.5	14.6	1.01606	2.6232e-07
0.5	15.1	1.01377	3.31095e-07
0.5	15.6	1.0117	4.03434e-07
0.5	16.1	1.00982	4.96765e-07
0.5	16.6	1.00812	6.15744e-07
0.5	17.1	1.00657	7.67661e-07
0.5	17.6	1.00517	8.29081e-07
0.5	18.1	1.0039	1.06772e-06
0.5	18.6	1.00274	1.33984e-06
0.5	19.1	1.00169	1.39708e-06
0.5	19.6	1.00073	1.96354e-06
0.5	20.1	0.999851	2.29325e-06
0.5	20.6	0.999052	2.48781e-06
0.5	21.1	0.998322	3.12755e-06
0.5	21.6	0.997656	3.65522e-06
0.5	22.1	0.997046	4.20353e-06
0.5	22.6	0.996488	5.22906e-06
0.5	23.1	0.995978	5.93743e-06
0.5	23.6	0.99551	6.75413e-06
0.5	24.1	0.995081	7.47843e-06
0.5	24.6	0.994687	8.62029e-06
0.5	25.1	0.994327	1.0304e-05
0.5	25.6	0.993998	1.06066e-05
0.5	26.1	0.993695	1.44543e-05
0.5	26.6	0.993418	1.39841e-05
0.5	27.1	0.993164	1.76505e-05
0.5	27.6	0.992931	2.02448e-05
0.5	28.1	0.992718	2.28695e-05
0.5	28.6	0.992523	2.75581e-05
0.5	29.1	0.992344	2.6704e-05
0.5	29.6	0.99218	3.16766e-05
0.5	30.1	0.99203	3.93257e-05
0.5	30.6	0.991893	3.90702e-05
0.5	31.1	0.991769	4.52407e-05
0.5	31.6	0.991659	4.24877e-05
0.5	32.1	0.991556	5.92574e-05
0.5	32.6	0.991462	5.56054e-05
0.5	33.1	0.991377	7.22075e-05
0.5	33.6	0.991299	6.81827e-05
0.5	34.1	0.99123	9.45045e-05
0.5	34.6	0.991168	0.000100604
0.5	35.1	0.991111	9.77034e-05
0.5	35.6	0.991061	9.48315e-05
0.5	36.1	0.991016	9.27169e-05
0.5	36.6	0.990976	5.7818e-05
0.5	37.1	0.990941	5.65345e-05
0.5	37.6	0.990912	5.7329e-05
0.5	38.1	0.990885	0.000169021
0.5	38.6	0.990863	0.000186232
0.5	39.1	0.990845	0.000242609
0.5	39.6	0.990829	0.000286323
0.5	40.1	0.990817	0.000297957
1	0.1	0.0755548	3.90267e-10
1	0.6	0.280172	1.1411e-10
1	1.1	0.443058	8.50752e-11
1	1.6	0.592677	8.16347e-11
1	2.1	0.731549	8.98382e-11
1	2.6	0.854844	1.10315e-10
1	3.1	0.955952	1.4611e-10
1	3.6	1.0316	2.03481e-10
1	4.1	1.08293	2.9547e-10
1	4.6	1.114	4.37237e-10
1	5.1	1.12982	6.49305e-10
1	5.6	1.13503	9.93166e-10
1	6.1	1.13333	1.48223e-09
1	6.6	1.12747	2.15533e-09
1	7.1	1.11929	3.15386e-09
1	7.6	1.11005	4.64388e-09
1	8.1	1.10052	6.65087e-09
1	8.6	1.09117	9.44082e-09
1	9.1	1.08226	1.31975e-08
1	9.6	1.07394	1.84976e-08
1	10.1	1.06627	2.52184e-08
1	10.6	1.05924	3.28691e-08
1	11.1	1.05285	4.38236e-08
1	11.6	1.04704	5.94962e-08
1	12.1	1.04179	7.64681e-08
1	12.6	1.03705	9.91905e-08
1	13.1	1.03275	1.35402e-07
1	13.6	1.02888	1.6718e-07
1	14.1	1.02537	2.08215e-07
1	14.6	1.0222	2.73243e-07
1	15.1	1.01932	3.45534e-07
1	15.6	1.01672	4.14041e-07
1	16.1	1.01436	4.9519e-07
1	16.6	1.01221	6.21135e-07
1	17.1	1.01026	7.94793e-07
1	17.6	1.00848	9.7209e-07
1	18.1	1.00686	1.14837e-06
1	18.6	1.00538	1.36455e-06
1	19.1	1.00403	1.66366e-06
1	19.6	1.0028	1.85734e-06
1	20.1	1.00167	2.28921e-06
1	20.6	1.00064	2.84434e-06
1	21.1	0.999687	3.38011e-06
1	21.6	0.998815	3.59553e-06
1	22.1	0.998015	4.46016e-06
1	22.6	0.997279	4.8491e-06
1	23.1	0.996602	6.18639e-06
1	23.6	0.995978	7.33609e-06
1	24.1	0.995403	8.6286e-06
1	24.6	0.994873	9.34583e-06
1	25.1	0.994384	1.04614e-05
1	25.6	0.993932	1.36373e-05
1	26.1	0.993515	1.51406e-05
1	26.6	0.99313	1.74969e-05
1	27.1	0.992774	1.91532e-05
1	27.6	0.992445	2.10585e-05
1	28.1	0.992141	2.68878e-05
1	28.6	0.99186	2.87751e-05
1	29.1	0.991599	3.23234e-05
1	29.6	0.991359	3.82245e-05
1	30.1	0.991136	4.0483e-05
1	30.6	0.99093	4.75347e-05
1	31.1	0.990739	4.70019e-05
1	31.6	0.990563	5.77622e-05
1	32.1	0.990399	5.74949e-05
1	32.6	0.990249	7.58037e-05
1	33.1	0.990109	7.61206e-05
1	33.6	0.98998	9.16967e-05
1	34.1	0.989862	0.000106973
1	34.6	0.989752	0.000103679
1	35.1	0.989651	0.000122244
1	35.6	0.989562	0.000119519
1	36.1	0.989476	0.000114563
1	36.6	0.989397	0.000110145
1	37.1	0.989325	0.000106455
1	37.6	0.989258	0.000102815
1	38.1	0.989196	6.6482e-05
1	38.6	0.989141	6.31151e-05
1	39.1	0.98909	5.9883e-05
1	39.6	0.989045	5.58973e-05
1	40.1	0.989002	0.000240638
1.5	0.1	0.0651604	4.46508e-10
1.5	0.6	0.251295	1.27596e-10
1.5	1.1	0.409332	9.27668e-11
1.5	1.6	0.56391	8.62787e-11
1.5	2.1	0.713727	9.39207e-11
1.5	2.6	0.850564	1.12624e-10
1.5	3.1	0.965368	1.47843e-10
1.5	3.6	1.05261	2.05745e-10
1.5	4.1	1.1123	2.97942e-10
1.5	4.6	1.14839	4.39383e-10
1.5	5.1	1.16645	6.49254e-10
1.5	5.6	1.17187	9.7641e-10
1.5	6.1	1.16906	1.47249e-09
1.5	6.6	1.16128	2.19853e-09
1.5	7.1	1.1508	3.27585e-09
1.5	7.6	1.1391	4.812e-09
1.5	8.1	1.12712	6.88993e-09
1.5	8.6	1.11541	9.82616e-09
1.5	9.1	1.10429	1.36115e-08
1.5	9.6	1.09393	1.81775e-08
1.5	10.1	1.08437	2.51938e-08
1.5	10.6	1.07564	3.5945e-08
1.5	11.1	1.06768	4.81091e-08
1.5	11.6	1.06047	6.04903e-08
1.5	12.1	1.05394	8.43742e-08
1.5	12.6	1.04803	1.0469e-07
1.5	13.1	1.04269	1.41728e-07
1.5	13.6	1.03785	1.7075e-07
1.5	14.1	1.03347	2.3533e-07
1.5	14.6	1.0295	2.92422e-07
1.5	15.1	1.02591	3.59903e-07
1.5	15.6	1.02264	4.72675e-07
1.5	16.1	1.01967	5.64179e-07
1.5	16.6	1.01696	7.00517e-07
1.5	17.1	1.0145	8.472e-07
1.5	17.6	1.01225	1.10824e-06
1.5	18.1	1.01019	1.3256e-06
1.5	18.6	1.00831	1.52665e-06
1.5	19.1	1.00659	1.9535e-06
1.5	19.6	1.00501	2.32363e-06
1.5	20.1	1.00356	2.5816e-06
1.5	20.6	1.00222	3.15494e-06
1.5	21.1	1.00099	2.91502e-06
1.5	21.6	0.999862	4.28659e-06
1.5	22.1	0.998818	5.59007e-06
1.5	22.6	0.997855	6.4701e-06
1.5	23.1	0.996965	7.13731e-06
1.5	23.6	0.996141	8.71138e-06
1.5	24.1	0.995379	9.22438e-06
1.5	24.6	0.994673	1.15505e-05
1.5	25.1	0.994017	1.34377e-05
1.5	25.6	0.993409	1.50318e-05
1.5	26.1	0.992844	1.81923e-05
1.5	26.6	0.992319	2.12245e-05
1.5	27.1	0.991832	2.44342e-05
1.5	27.6	0.991378	2.80291e-05
1.5	28.1	0.990956	2.66712e-05
1.5	28.6	0.990562	3.57373e-05
1.5	29.1	0.990195	3.63697e-05
1.5	29.6	0.989854	3.91735e-05
1.5	30.1	0.989535	5.21689e-05
1.5	30.6	0.989237	5.42451e-05
1.5	31.1	0.988959	5.45024e-05
1.5	31.6	0.9887	6.96477e-05
1.5	32.1	0.988458	8.2972e-05
1.5	32.6	0.988231	7.90389e-05
1.5	33.1	0.98802	0.000103067
1.5	33.6	0.987822	0.000104748
1.5	34.1	0.987637	0.000124504
1.5	34.6	0.987465	0.000145196
1.5	35.1	0.987303	0.000167935
1.5	35.6	0.987152	0.000164263
1.5	36.1	0.987011	0.000191372
1.5	36.6	0.986878	0.000210921
1.5	37.1	0.986755	0.000207821
1.5	37.6	0.986639	0.000204677
1.5	38.1	0.986531	0.000298151
1.5	38.6	0.98643	0.000294827
1.5	39.1	0.986335	0.000291556
1.5	39.6	0.986247	0.000403357
1.5	40.1	0.986164	0.00036944
2	0.1	0.0542464	5.4255e-10
2	0.6	0.220306	1.46301e-10
2	1.1	0.372109	1.03539e-10
2	1.6	0.53137	9.35929e-11
2	2.1	0.693815	9.85709e-11
2	2.6	0.846414	1.16227e-10
2	3.1	0.977683	1.50298e-10
2	3.6	1.07926	2.08888e-10
2	4.1	1.14948	2.98214e-10
2	4.6	1.192	4.45138e-10
2	5.1	1.21296	6.64036e-10
2	5.6	1.21867	1.00763e-09
2	6.1	1.21443	1.49938e-09
2	6.6	1.20419	2.25963e-09
2	7.1	1.19073	3.38401e-09
2	7.6	1.17586	5.05727e-09
2	8.1	1.16071	7.23987e-09
2	8.6	1.14597	1.03521e-08
2	9.1	1.132	1.44439e-08
2	9.6	1.119	2.04357e-08
2	10.1	1.10703	2.90116e-08
2	10.6	1.09609	3.80872e-08
2	11.1	1.08614	5.16018e-08
2	11.6	1.07712	7.03068e-08
2	12.1	1.06894	9.19056e-08
2	12.6	1.06154	1.20134e-07
2	13.1	1.05484	1.6517e-07
2	13.6	1.04877	2.02437e-07
2	14.1	1.04327	2.51848e-07
2	14.6	1.03827	3.24654e-07
2	15.1	1.03374	4.18898e-07
2	15.6	1.02961	5.58632e-07
2	16.1	1.02585	6.7323e-07
2	16.6	1.02242	8.29433e-07
2	17.1	1.01929	1.00108e-06
2	17.6	1.01643	1.24232e-06
2	18.1	1.0138	1.6285e-06
2	18.6	1.01139	1.90839e-06
2	19.1	1.00918	2.33168e-06
2	19.6	1.00715	2.73462e-06
2	20.1	1.00527	3.41398e-06
2	20.6	1.00354	4.2327e-06
2	21.1	1.00195	4.75333e-06
2	21.6	1.00047	5.33206e-06
2	22.1	0.999106	7.12566e-06
2	22.6	0.99784	7.63756e-06
2	23.1	0.996666	9.36218e-06
2	23.6	0.995575	9.81133e-06
2	24.1	0.994561	1.29156e-05
2	24.6	0.993618	1.28907e-05
2	25.1	0.992739	1.56971e-05
2	25.6	0.991919	2.16554e-05
2	26.1	0.991155	2.37914e-05
2	26.6	0.99044	2.857e-05
2	27.1	0.989772	3.34084e-05
2	27.6	0.989147	3.45886e-05
2	28.1	0.988563	4.06748e-05
2	28.6	0.988015	4.61675e-05
2	29.1	0.987501	5.27659e-05
2	29.6	0.987019	5.27734e-05
2	30.1	0.986567	5.19268e-05
2	30.6	0.986142	7.79119e-05
2	31.1	0.985742	9.39924e-05
2	31.6	0.985367	8.36232e-05
2	32.1	0.985013	0.000121165
2	32.6	0.98468	0.000129966
2	33.1	0.984366	0.000133227
2	33.6	0.98407	0.000164213
2	34.1	0.983791	0.000172704
2	34.6	0.983528	0.000191253
2	35.1	0.983279	0.000220084
2	35.6	0.983045	0.000238225
2	36.1	0.982824	0.000252026
2	36.6	0.982614	0.000354288
2	37.1	0.982416	0.000372713
2	37.6	0.982228	0.000389858
2	38.1	0.98205	0.000405892
2	38.6	0.981882	0.000528673
2	39.1	0.981722	0.000552667
2	39.6	0.981571	0.000575821
2	40.1	0.981428	0.000598199
2.5	0.1	0.0429472	6.77171e-10
2.5	0.6	0.186888	1.74841e-10
2.5	1.1	0.330611	1.18583e-10
2.5	1.6	0.494148	1.03622e-10
2.5	2.1	0.672033	1.06112e-10
2.5	2.6	0.843837	1.22702e-10
2.5	3.1	0.995573	1.55798e-10
2.5	3.6	1.11541	2.15792e-10
2.5	4.1	1.19929	3.09615e-10
2.5	4.6	1.25025	4.61967e-10
2.5	5.1	1.27502	7.0228e-10
2.5	5.6	1.28107	1.0569e-09
2.5	6.1	1.27486	1.63644e-09
2.5	6.6	1.26128	2.48632e-09
2.5	7.1	1.24379	3.7429e-09
2.5	7.6	1.22463	5.45025e-09
2.5	8.1	1.20522	8.2282e-09
2.5	8.6	1.18638	1.19164e-08
2.5	9.1	1.16859	1.68534e-08
2.5	9.6	1.15206	2.36214e-08
2.5	10.1	1.13685	3.21612e-08
2.5	10.6	1.12297	4.69487e-08
2.5	11.1	1.11034	6.47545e-08
2.5	11.6	1.09888	8.40571e-08
2.5	12.1	1.0885	1.14172e-07
2.5	12.6	1.07909	1.48704e-07
2.5	13.1	1.07057	2.05053e-07
2.5	13.6	1.06284	2.67556e-07
2.5	14.1	1.05583	3.37945e-07
2.5	14.6	1.04945	4.27863e-07
2.5	15.1	1.04365	5.87808e-07
2.5	15.6	1.03836	7.32971e-07
2.5	16.1	1.03353	9.23287e-07
2.5	16.6	1.02912	1.14131e-06
2.5	17.1	1.02508	1.46066e-06
2.5	17.6	1.02137	1.70847e-06
2.5	18.1	1.01797	2.24136e-06
2.5	18.6	1.01483	2.77264e-06
2.5	19.1	1.01195	3.37954e-06
2.5	19.6	1.00929	4.07769e-06
2.5	20.1	1.00682	4.83081e-06
2.5	20.6	1.00455	5.88711e-06
2.5	21.1	1.00244	6.89892e-06
2.5	21.6	1.00048	8.60374e-06
2.5	22.1	0.998659	1.02332e-05
2.5	22.6	0.996967	1.13882e-05
2.5	23.1	0.99539	1.4642e-05
2.5	23.6	0.99392	1.62917e-05
2.5	24.1	0.992547	2.07316e-05
2.5	24.6	0.991264	2.33001e-05
2.5	25.1	0.990064	2.81972e-05
2.5	25.6	0.988939	3.21007e-05
2.5	26.1	0.987884	3.75799e-05
2.5	26.6	0.986894	4.54524e-05
2.5	27.1	0.985964	5.21407e-05
2.5	27.6	0.985088	6.50122e-05
2.5	28.1	0.984265	6.95088e-05
2.5	28.6	0.983489	7.84073e-05
2.5	29.1	0.982757	9.47555e-05
2.5	29.6	0.982066	9.39375e-05
2.5	30.1	0.981414	0.000113526
2.5	30.6	0.980797	0.000106251
2.5	31.1	0.980213	0.000158167
2.5	31.6	0.97966	0.000168008
2.5	32.1	0.979137	0.000172543
2.5	32.6	0.97864	0.00023021
2.5	33.1	0.978168	0.000280371
2.5	33.6	0.977721	0.000315187
2.5	34.1	0.977295	0.000362281
2.5	34.6	0.97689	0.000411457
2.5	35.1	0.976505	0.000429385
2.5	35.6	0.976138	0.000489667
2.5	36.1	0.975788	0.000602991
2.5	36.6	0.975455	0.000652036
2.5	37.1	0.975136	0.000715558
2.5	37.6	0.974832	0.000666683
2.5	38.1	0.974542	0.000616978
2.5	38.6	0.974264	0.000571817
2.5	39.1	0.973999	0.00130636
2.5	39.6	0.973745	0.0012658
2.5	40.1	0.973502	0.00122633
3	0.1	0.0315096	9.4677e-10
3	0.6	0.150792	2.18788e-10
3	1.1	0.283841	1.42497e-10
3	1.6	0.450922	1.18817e-10
3	2.1	0.648932	1.16841e-10
3	2.6	0.846362	1.32838e-10
3	3.1	1.02518	1.68291e-10
3	3.6	1.16956	2.2861e-10
3	4.1	1.27209	3.30392e-10
3	4.6	1.33463	4.97075e-10
3	5.1	1.36459	7.68699e-10
3	5.6	1.37095	1.19164e-09
3	6.1	1.3618	1.83638e-09
3	6.6	1.34336	2.85351e-09
3	7.1	1.32004	4.3651e-09
3	7.6	1.29472	6.61187e-09
3	8.1	1.26919	9.94713e-09
3	8.6	1.24453	1.43491e-08
3	9.1	1.22128	2.11862e-08
3	9.6	1.19971	3.05303e-08
3	10.1	1.17991	4.28754e-08
3	10.6	1.16183	6.183e-08
3	11.1	1.1454	8.48958e-08
3	11.6	1.13049	1.16872e-07
3	12.1	1.11697	1.61025e-07
3	12.6	1.10471	2.22502e-07
3	13.1	1.09359	3.0232e-07
3	13.6	1.08349	3.71804e-07
3	14.1	1.07431	5.42405e-07
3	14.6	1.06596	7.16416e-07
3	15.1	1.05833	9.12454e-07
3	15.6	1.05137	1.17237e-06
3	16.1	1.045	1.48133e-06
3	16.6	1.03916	1.8623e-06
3	17.1	1.0338	2.32835e-06
3	17.6	1.02887	2.98496e-06
3	18.1	1.02432	3.92169e-06
3	18.6	1.02012	5.01139e-06
3	19.1	1.01624	6.36229e-06
3	19.6	1.01265	7.2067e-06
3	20.1	1.00932	9.79483e-06
3	20.6	1.00622	1.19713e-05
3	21.1	1.00334	1.45317e-05
3	21.6	1.00066	1.75988e-05
3	22.1	0.998154	2.21065e-05
3	22.6	0.995814	2.60337e-05
3	23.1	0.993624	2.97326e-05
3	23.6	0.991572	3.49284e-05
3	24.1	0.989647	4.27379e-05
3	24.6	0.987844	5.19598e-05
3	25.1	0.986143	6.74172e-05
3	25.6	0.984541	7.73431e-05
3	26.1	0.983032	9.62588e-05
3	26.6	0.981606	0.000117137
3	27.1	0.980259	0.000123541
3	27.6	0.978985	0.000157338
3	28.1	0.977778	0.000173167
3	28.6	0.976635	0.00022123
3	29.1	0.975549	0.000269692
3	29.6	0.974518	0.000299609
3	30.1	0.973538	0.000336076
3	30.6	0.972605	0.000385416
3	31.1	0.971716	0.00044732
3	31.6	0.970869	0.000595815
3	32.1	0.97006	0.000675103
3	32.6	0.969287	0.000773097
3	33.1	0.968548	0.000908135
3	33.6	0.967841	0.000883549
3	34.1	0.967164	0.00109349
3	34.6	0.966515	0.00132254
3	35.1	0.965893	0.00158103
3	35.6	0.965295	0.00154166
3	36.1	0.96472	0.00192613
3	36.6	0.964168	0.00187496
3	37.1	0.963636	0.00274188
3	37.6	0.963124	0.00268615
3	38.1	0.962631	0.00368849
3	38.6	0.962154	0.00361152
3	39.1	0.961695	0.00496112
3	39.6	0.96125	0.00487305
3	40.1	0.960822	0.00656857
3.5	0.1	0.0204731	1.45315e-09
3.5	0.6	0.112314	3.02994e-10
3.5	1.1	0.230909	1.85498e-10
3.5	1.6	0.399942	1.45973e-10
3.5	2.1	0.624377	1.35413e-10
3.5	2.6	0.862323	1.4886e-10
3.5	3.1	1.08098	1.85469e-10
3.5	3.6	1.26163	2.55869e-10
3.5	4.1	1.39194	3.72573e-10
3.5	4.6	1.47178	5.70909e-10
3.5	5.1	1.50937	8.96488e-10
3.5	5.6	1.51593	1.42051e-09
3.5	6.1	1.50199	2.27409e-09
3.5	6.6	1.47583	3.62996e-09
3.5	7.1	1.44335	5.68247e-09
3.5	7.6	1.4084	8.89725e-09
3.5	8.1	1.37338	1.39703e-08
3.5	8.6	1.33967	2.15507e-08
3.5	9.1	1.30799	3.21542e-08
3.5	9.6	1.27867	4.85069e-08
3.5	10.1	1.25178	7.0894e-08
3.5	10.6	1.22727	9.99065e-08
3.5	11.1	1.20499	1.46502e-07
3.5	11.6	1.18477	2.16883e-07
3.5	12.1	1.16643	2.82113e-07
3.5	12.6	1.14979	4.02044e-07
3.5	13.1	1.13467	5.71295e-07
3.5	13.6	1.12093	7.96724e-07
3.5	14.1	1.10841	1.01402e-06
3.5	14.6	1.09699	1.47517e-06
3.5	15.1	1.08655	2.01567e-06
3.5	15.6	1.07699	2.60688e-06
3.5	16.1	1.06822	3.32993e-06
3.5	16.6	1.06015	4.76187e-06
3.5	17.1	1.05272	6.04142e-06
3.5	17.6	1.04586	7.42266e-06
3.5	18.1	1.03952	9.4251e-06
3.5	18.6	1.03364	1.13605e-05
3.5	19.1	1.02819	1.76288e-05
3.5	19.6	1.02312	2.22598e-05
3.5	20.1	1.0184	2.82482e-05
3.5	20.6	1.01399	3.75581e-05
3.5	21.1	1.00987	4.78304e-05
3.5	21.6	1.00601	5.82699e-05
3.5	22.1	1.0024	7.12724e-05
3.5	22.6	0.999001	8.09468e-05
3.5	23.1	0.995809	0.00011489
3.5	23.6	0.992801	0.000137495
3.5	24.1	0.989966	0.000178098
3.5	24.6	0.987288	0.000218176
3.5	25.1	0.984753	0.00026319
3.5	25.6	0.982355	0.000327132
3.5	26.1	0.98008	0.000440944
3.5	26.6	0.97792	0.000490962
3.5	27.1	0.975866	0.00057474
3.5	27.6	0.973911	0.00077779
3.5	28.1	0.972051	0.000958475
3.5	28.6	0.970274	0.00112141
3.5	29.1	0.968578	0.00125219
3.5	29.6	0.966955	0.00148602
3.5	30.1	0.965401	0.00181547
3.5	30.6	0.963913	0.00231654
3.5	31.1	0.962485	0.00328898
3.5	31.6	0.961114	0.0031905
3.5	32.1	0.959797	0.0042181
3.5	32.6	0.958529	0.00558148
3.5	33.1	0.957308	0.00548201
3.5	33.6	0.956132	0.00748132
3.5	34.1	0.954996	0.00733167
3.5	34.6	0.953901	0.0110359
3.5	35.1	0.95284	0.0108049
3.5	35.6	0.951815	0.0105836
3.5	36.1	0.950821	0.0103718
3.5	36.6	0.949859	0.0101689
3.5	37.1	0.948945	0.0260826
3.5	37.6	0.948039	0.0260639
3.5	38.1	0.947159	0.0260505
3.5	38.6	0.946304	0.0260423
3.5	39.1	0.945548	0.0547656
3.5	39.6	0.944784	0.0656639
3.5	40.1	0.943999	0.0658648
4	0.1	0.0108681	2.68143e-09
4	0.6	0.0732704	4.90831e-10
4	1.1	0.172058	2.72736e-10
4	1.6	0.33937	1.95935e-10
4	2.1	0.599369	1.68139e-10
4	2.6	0.911915	1.75406e-10
4	3.1	1.1997	2.17597e-10
4	3.6	1.44267	3.01853e-10
4	4.1	1.62098	4.56492e-10
4	4.6	1.7309	7.17052e-10
4	5.1	1.78181	1.17336e-09
4	5.6	1.78868	1.95159e-09
4	6.1	1.76631	3.30438e-09
4	6.6	1.72663	5.55413e-09
4	7.1	1.67815	9.20047e-09
4	7.6	1.62647	1.51769e-08
4	8.1	1.575	2.45096e-08
4	8.6	1.52568	3.95381e-08
4	9.1	1.47951	6.27791e-08
4	9.6	1.43691	1.0033e-07
4	10.1	1.39793	1.59559e-07
4	10.6	1.36246	2.47423e-07
4	11.1	1.33025	3.75569e-07
4	11.6	1.30105	5.66223e-07
4	12.1	1.27457	7.66431e-07
4	12.6	1.25055	1.09476e-06
4	13.1	1.22872	1.83643e-06
4	13.6	1.20885	2.34346e-06
4	14.1	1.19074	3.42195e-06
4	14.6	1.1742	5.53124e-06
4	15.1	1.15906	7.52941e-06
4	15.6	1.14517	1.04538e-05
4	16.1	1.1324	1.57103e-05
4	16.6	1.12064	2.17943e-05
4	17.1	1.10978	2.92467e-05
4	17.6	1.09975	4.06754e-05
4	18.1	1.09044	6.04374e-05
4	18.6	1.08181	7.94769e-05
4	19.1	1.07377	0.000108274
4	19.6	1.06629	0.000155968
4	20.1	1.0593	0.000151017
4	20.6	1.05276	0.000238152
4	21.1	1.04664	0.000343829
4	21.6	1.04091	0.000521251
4	22.1	1.03554	0.000546771
4	22.6	1.03055	0.000749311
4	23.1	1.02582	0.000894229
4	23.6	1.02141	0.00146008
4	24.1	1.01681	0.00164419
4	24.6	1.01277	0.00160155
4	25.1	1.00893	0.00387453
4	25.6	1.0053	0.00384062
4	26.1	1.00186	0.00380793
4	26.6	0.998579	0.00632592
4	27.1	0.995441	0.0115534
4	27.6	0.992474	0.0143888
4	28.1	0.989636	0.0180509
4	28.6	0.98691	0.0278301
4	29.1	0.984322	0.0348139
4	29.6	0.981817	0.043087
4	30.1	0.979379	0.0599319
4	30.6	0.977036	0.0797786
4	31.1	0.974867	0.0955998
4	31.6	0.972849	0.120139
4	32.1	0.971229	0.171072
4	32.6	0.969395	0.173264
4	33.1	0.968501	0.250407
4	33.6	0.968688	0.357616
4	34.1	0.967213	0.360447
4	34.6	0.972742	0.624136
4	35.1	0.971593	0.623999
4	35.6	0.970478	0.623585
4	36.1	1.00347	1.26222
4	36.6	1.01836	1.64846
4	37.1	1.02072	1.65944
4	37.6	1.02312	1.66991
4	38.1	1.02554	1.67989
4	38.6	1.02799	1.68941
4	39.1	1.03034	1.69803
4	39.6	1.03282	1.70671
4	40.1	1.03533	1.715
4.5	0.1	0.00407461	7.41e-09
4.5	0.6	0.0381337	1.02025e-09
4.5	1.1	0.110694	4.92942e-10
4.5	1.6	0.268365	3.09826e-10
4.5	2.1	0.57744	2.33303e-10
4.5	2.6	1.04741	2.19578e-10
4.5	3.1	1.48808	2.72893e-10
4.5	3.6	1.8659	3.91729e-10
4.5	4.1	2.14927	6.18653e-10
4.5	4.6	2.32675	1.03686e-09
4.5	5.1	2.40947	1.8263e-09
4.5	5.6	2.4201	3.31717e-09
4.5	6.1	2.38252	6.06001e-09
4.5	6.6	2.31651	1.10462e-08
4.5	7.1	2.23631	2.00479e-08
4.5	7.6	2.15126	3.58744e-08
4.5	8.1	2.06703	6.39968e-08
4.5	8.6	1.98676	1.15822e-07
4.5	9.1	1.91205	2.02989e-07
4.5	9.6	1.84347	3.48506e-07
4.5	10.1	1.78107	6.25205e-07
4.5	10.6	1.72458	1.0173e-06
4.5	11.1	1.67358	1.6158e-06
4.5	11.6	1.6276	2.79738e-06
4.5	12.1	1.58613	4.25256e-06
4.5	12.6	1.54874	7.09737e-06
4.5	13.1	1.51498	1.21984e-05
4.5	13.6	1.48448	2.05765e-05
4.5	14.1	1.45688	3.31417e-05
4.5	14.6	1.43188	5.55239e-05
4.5	15.1	1.40921	8.64796e-05
4.5	15.6	1.38864	0.000139422
4.5	16.1	1.36994	0.000220985
4.5	16.6	1.35294	0.000357407
4.5	17.1	1.33746	0.000513231
4.5	17.6	1.32331	0.000799391
4.5	18.1	1.30907	0.00133351
4.5	18.6	1.29758	0.00184375
4.5	19.1	1.2872	0.00304865
4.5	19.6	1.27782	0.00509715
4.5	20.1	1.2694	0.00799362
4.5	20.6	1.26182	0.00969441
4.5	21.1	1.25508	0.0171788
4.5	21.6	1.24997	0.0253582
4.5	22.1	1.24446	0.0408659
4.5	22.6	1.23954	0.0578526
4.5	23.1	1.23502	0.0816428
4.5	23.6	1.22826	0.168238
4.5	24.1	1.22152	0.223729
4.5	24.6	1.20479	0.370956
4.5	25.1	1.18004	0.701914
4.5	25.6	1.17307	0.893806
4.5	26.1	1.17365	0.925095
4.5	26.6	1.3397	1.68109
4.5	27.1	1.34956	1.70188
4.5	27.6	1.36034	1.72109
4.5	28.1	1.36884	1.73274
4.5	28.6	1.37327	1.73471
4.5	29.1	1.37839	1.73648
4.5	29.6	1.38425	1.73803
4.5	30.1	1.39087	1.73936
4.5	30.6	1.39829	1.74047
4.5	31.1	1.40657	1.74136
4.5	31.6	1.41574	1.74202
4.5	32.1	1.42587	1.74244
4.5	32.6	1.43703	1.74261
4.5	33.1	1.44929	1.74253
4.5	33.6	1.46274	1.74218
4.5	34.1	1.47748	1.74156
4.5	34.6	1.49361	1.74064
4.5	35.1	1.51127	1.73942
4.5	35.6	1.54226	2.92339
4.5	36.1	1.5613	5.14015
4.5	36.6	1.58226	9.12872
4.5	37.1	1.60536	16.3851
4.5	37.6	1.63085	29.7416
4.5	38.1	1.65902	54.6332
4.5	38.6	1.69021	101.634
4.5	39.1	1.72484	191.627
4.5	39.6	1.76337	366.503
4.5	40.1	2.07166	620.566
5	0.1	0.000819641	3.71646e-08
5	0.6	0.0133674	3.34901e-09
5	1.1	0.0554112	1.25732e-09
5	1.6	0.189089	6.33426e-10
5	2.1	0.564592	3.91855e-10
5	2.6	1.40191	3.04841e-10
5	3.1	2.34454	3.64067e-10
5	3.6	3.13766	5.59724e-10
5	4.1	3.75606	9.73504e-10
5	4.6	4.16451	1.84295e-09
5	5.1	4.37496	3.71339e-09
5	5.6	4.42952	7.56356e-09
5	6.1	4.37761	1.61321e-08
5	6.6	4.26207	3.38284e-08
5	7.1	4.11452	7.37849e-08
5	7.6	3.95594	1.56532e-07
5	8.1	3.79918	3.20907e-07
5	8.6	3.65144	6.73565e-07
5	9.1	3.51637	1.47877e-06
5	9.6	3.39545	3.12139e-06
5	10.1	3.28892	6.32386e-06
5	10.6	3.19635	1.27814e-05
5	11.1	3.11702	2.58282e-05
5	11.6	3.0501	5.71621e-05
5	12.1	2.99476	0.000115428
5	12.6	2.95028	0.000216017
5	13.1	2.91601	0.000442249
5	13.6	2.89144	0.000906491
5	14.1	2.87627	0.00174442
5	14.6	2.86291	0.00424658
5	15.1	2.8713	0.00745575
5	15.6	2.88396	0.0162657
5	16.1	2.90608	0.0332336
5	16.6	2.9375	0.076468
5	17.1	2.97575	0.165414
5	17.6	3.01677	0.294131
5	18.1	3.0486	0.754244
5	18.6	3.1422	1.56624
5	19.1	3.22347	1.57043
5	19.6	3.31687	1.57534
5	20.1	3.42429	1.58102
5	20.6	3.54808	1.58758
5	21.1	3.69112	1.59506
5	21.6	3.85708	1.60352
5	22.1	4.05067	1.61307
5	22.6	4.278	1.62384
5	23.1	4.54706	1.63597
5	23.6	5.12676	1.9047
5	24.1	6.16514	4.04418
5	24.6	6.82869	11.5187
5	25.1	7.6676	34.1421
5	25.6	8.74901	105.768
5	26.1	10.1753	344.142
5	26.6	12.1084	1182.81
5	27.1	14.8152	4322.88
5	27.6	18.7573	16932.1
5	28.1	24.7821	71740.4
5	28.6	34.5582	332503
5	29.1	51.6678	1.70895e+06
5	29.6	84.6856	9.90609e+06
5	30.1	157.208	6.61535e+07
5	30.6	347.386	5.23084e+08
5	31.1	989.805	5.07713e+09
5	31.6	4174.14	6.35069e+10
5	32.1	33884	1.09391e+12
5	32.6	952454	2.81514e+13
5	33.1	7.36521e+08	7.73067e+14
5	33.6	1.00127e+17	1.24774e+16
5	34.1	1	1
5	34.6	1	1
5	35.1	1	1
5	35.6	1	1
5	36.1	1	1
5	36.6	1	1
5	37.1	1	1
5	37.6	1	1
5	38.1	1	1
5	38.6	1	1
5	39.1	1	1
5	39.6	1	1
5	40.1	1	1
