-5	0.1	0.0840863	2.93623e-11
-5	0.6	0.312194	2.94319e-11
-5	1.1	0.310611	2.935e-11
-5	1.6	0.226268	2.95371e-11
-5	2.1	0.143464	2.94398e-11
-5	2.6	0.083106	2.95373e-11
-5	3.1	0.0451751	2.9354e-11
-5	3.6	0.0234921	2.87061e-11
-5	4.1	0.0118618	2.94942e-11
-5	4.6	0.00588155	2.95421e-11
-5	5.1	0.0028877	2.87379e-11
-5	5.6	0.00141218	2.92128e-11
-5	6.1	0.000690628	2.95217e-11
-5	6.6	0.000338638	2.95249e-11
-5	7.1	0.000166741	2.86668e-11
-5	7.6	8.25132e-05	2.79296e-11
-5	8.1	4.10499e-05	2.9585e-11
-5	8.6	2.05302e-05	2.63849e-11
-5	9.1	1.03193e-05	2.83789e-11
-5	9.6	5.2108e-06	2.6967e-11
-5	10.1	2.64202e-06	2.86029e-11
-5	10.6	1.34434e-06	2.83822e-11
-5	11.1	6.86088e-07	2.78663e-11
-5	11.6	3.51007e-07	2.93815e-11
-5	12.1	1.79928e-07	2.93178e-11
-5	12.6	9.23707e-08	2.21302e-11
-5	13.1	4.74749e-08	2.69439e-11
-5	13.6	2.44217e-08	2.40859e-11
-5	14.1	1.25725e-08	2.369e-11
-5	14.6	6.477e-09	2.48606e-11
-5	15.1	3.33998e-09	2.2739e-11
-5	15.6	1.72477e-09	1.16666e-11
-5	16.1	8.92512e-10	2.9069e-11
-5	16.6	4.63225e-10	2.40798e-11
-5	17.1	2.41339e-10	2.40852e-11
-5	17.6	1.26088e-10	2.6164e-11
-5	18.1	6.65241e-11	4.73914e-12
-5	18.6	3.37655e-11	2.52433e-11
-5	19.1	1.81286e-11	1.34373e-11
-5	19.6	9.7774e-12	7.48378e-12
-5	20.1	5.31891e-12	4.24289e-12
-5	20.6	2.88045e-12	2.55212e-12
-5	21.1	1.56685e-12	1.58713e-12
-5	21.6	8.57274e-13	9.81082e-13
-5	22.1	4.72557e-13	5.92935e-13
-5	22.6	2.61929e-13	3.52624e-13
-5	23.1	1.45715e-13	2.07069e-13
-5	23.6	8.12184e-14	1.20299e-13
-5	24.1	4.52842e-14	6.92228e-14
-5	24.6	2.5221e-14	3.9479e-14
-5	25.1	1.4014e-14	2.23243e-14
-5	25.6	7.76039e-15	1.2519e-14
-5	26.1	4.27882e-15	6.9625e-15
-5	26.6	2.62544e-15	6.26536e-15
-5	27.1	1.8453e-15	5.83336e-15
-5	27.6	1.4588e-15	5.00573e-15
-5	28.1	9.53744e-16	4.65273e-15
-5	28.6	5.64127e-16	4.65273e-15
-5	29.1	3.32989e-16	4.65273e-15
-5	29.6	1.96089e-16	4.65273e-15
-5	30.1	1.1516e-16	4.65273e-15
-5	30.6	6.74258e-17	4.65273e-15
-5	31.1	3.93429e-17	4.65273e-15
-5	31.6	2.28694e-17	4.65273e-15
-5	32.1	1.32375e-17	4.65273e-15
-5	32.6	7.62666e-18	4.65273e-15
-5	33.1	4.37149e-18	4.65273e-15
-5	33.6	2.49158e-18	4.65273e-15
-5	34.1	1e-30	1e-30
-5	34.6	1e-30	1e-30
-5	35.1	1e-30	1e-30
-5	35.6	1e-30	1e-30
-5	36.1	1e-30	1e-30
-5	36.6	1e-30	1e-30
-5	37.1	1e-30	1e-30
-5	37.6	1e-30	1e-30
-5	38.1	1e-30	1e-30
-5	38.6	1e-30	1e-30
-5	39.1	1e-30	1e-30
-5	39.6	1e-30	1e-30
-5	40.1	1e-30	1e-30
-4.5	0.1	0.0989657	2.86536e-11
-4.5	0.6	0.359668	2.93e-11
-4.5	1.1	0.374774	2.93062e-11
-4.5	1.6	0.29687	2.94449e-11
-4.5	2.1	0.207245	2.93478e-11
-4.5	2.6	0.133271	2.95025e-11
-4.5	3.1	0.0809451	2.90478e-11
-4.5	3.6	0.0472962	2.95143e-11
-4.5	4.1	0.026967	2.93869e-11
-4.5	4.6	0.0151687	2.90321e-11
-4.5	5.1	0.00848543	2.91634e-11
-4.5	5.6	0.00474785	2.94668e-11
-4.5	6.1	0.0026676	2.91586e-11
-4.5	6.6	0.00150889	2.90921e-11
-4.5	7.1	0.000860568	2.95172e-11
-4.5	7.6	0.000495312	2.87571e-11
-4.5	8.1	0.000287806	2.91001e-11
-4.5	8.6	0.000168836	2.82862e-11
-4.5	9.1	9.99745e-05	2.60475e-11
-4.5	9.6	5.97352e-05	2.74355e-11
-4.5	10.1	3.60002e-05	2.94162e-11
-4.5	10.6	2.18729e-05	2.73069e-11
-4.5	11.1	1.33911e-05	2.78607e-11
-4.5	11.6	8.25693e-06	2.66193e-11
-4.5	12.1	5.12496e-06	2.89947e-11
-4.5	12.6	3.20052e-06	2.84781e-11
-4.5	13.1	2.01001e-06	2.71079e-11
-4.5	13.6	1.26891e-06	2.94129e-11
-4.5	14.1	8.04862e-07	2.58534e-11
-4.5	14.6	5.12739e-07	2.49849e-11
-4.5	15.1	3.2793e-07	2.47031e-11
-4.5	15.6	2.10481e-07	2.87768e-11
-4.5	16.1	1.35531e-07	2.78912e-11
-4.5	16.6	8.75203e-08	2.88565e-11
-4.5	17.1	5.6662e-08	2.86511e-11
-4.5	17.6	3.6765e-08	2.35259e-11
-4.5	18.1	2.39025e-08	2.74094e-11
-4.5	18.6	1.55664e-08	2.66604e-11
-4.5	19.1	1.01521e-08	1.66458e-11
-4.5	19.6	6.62908e-09	2.45322e-11
-4.5	20.1	4.33281e-09	2.27279e-11
-4.5	20.6	2.83413e-09	2.23283e-11
-4.5	21.1	1.8549e-09	2.08792e-11
-4.5	21.6	1.21448e-09	2.00294e-11
-4.5	22.1	7.95365e-10	2.83038e-11
-4.5	22.6	5.20927e-10	2.44069e-11
-4.5	23.1	3.41209e-10	2.69833e-11
-4.5	23.6	2.2347e-10	2.29672e-11
-4.5	24.1	1.46428e-10	2.8522e-11
-4.5	24.6	9.5878e-11	2.01465e-11
-4.5	25.1	6.28729e-11	1.98847e-11
-4.5	25.6	4.13262e-11	2.05093e-11
-4.5	26.1	2.75234e-11	2.55283e-11
-4.5	26.6	1.79709e-11	1.92405e-11
-4.5	27.1	1.17282e-11	1.20978e-11
-4.5	27.6	7.64722e-12	7.52083e-12
-4.5	28.1	4.98281e-12	4.60527e-12
-4.5	28.6	3.25087e-12	2.82513e-12
-4.5	29.1	2.12191e-12	1.70488e-12
-4.5	29.6	1.38941e-12	1.04785e-12
-4.5	30.1	9.12336e-13	6.50255e-13
-4.5	30.6	6.00445e-13	3.97433e-13
-4.5	31.1	3.96464e-13	2.38031e-13
-4.5	31.6	2.62939e-13	1.38521e-13
-4.5	32.1	1.75415e-13	7.87671e-14
-4.5	32.6	1.17741e-13	7.37903e-14
-4.5	33.1	7.86656e-14	6.28074e-14
-4.5	33.6	5.22015e-14	4.77676e-14
-4.5	34.1	3.46085e-14	3.54244e-14
-4.5	34.6	2.31993e-14	2.83965e-14
-4.5	35.1	1.56172e-14	2.22472e-14
-4.5	35.6	1.05586e-14	1.7125e-14
-4.5	36.1	7.16901e-15	1.29979e-14
-4.5	36.6	4.88759e-15	9.75165e-15
-4.5	37.1	3.34494e-15	7.24492e-15
-4.5	37.6	2.3404e-15	5.76011e-15
-4.5	38.1	1.74651e-15	5.3344e-15
-4.5	38.6	1.33975e-15	4.77456e-15
-4.5	39.1	9.74734e-16	4.65273e-15
-4.5	39.6	7.005e-16	4.65273e-15
-4.5	40.1	5.04901e-16	4.65273e-15
-4	0.1	0.109684	2.8585e-11
-4	0.6	0.38292	2.93746e-11
-4	1.1	0.421794	2.93812e-11
-4	1.6	0.351445	2.96164e-11
-4	2.1	0.259835	2.92871e-11
-4	2.6	0.177731	2.95515e-11
-4	3.1	0.115206	2.93081e-11
-4	3.6	0.0720353	2.92569e-11
-4	4.1	0.0440542	2.93965e-11
-4	4.6	0.0266325	2.95462e-11
-4	5.1	0.016041	2.90113e-11
-4	5.6	0.00967984	2.93214e-11
-4	6.1	0.0058747	2.91777e-11
-4	6.6	0.0035947	2.9626e-11
-4	7.1	0.00222107	2.96142e-11
-4	7.6	0.0013869	2.85056e-11
-4	8.1	0.000875534	2.85299e-11
-4	8.6	0.000558801	2.82375e-11
-4	9.1	0.000360512	2.88825e-11
-4	9.6	0.00023503	2.77503e-11
-4	10.1	0.000154772	2.76454e-11
-4	10.6	0.000102904	2.90898e-11
-4	11.1	6.90454e-05	2.8857e-11
-4	11.6	4.67297e-05	2.86336e-11
-4	12.1	3.18862e-05	2.81493e-11
-4	12.6	2.19261e-05	2.92638e-11
-4	13.1	1.51873e-05	2.72073e-11
-4	13.6	1.05919e-05	2.72705e-11
-4	14.1	7.43483e-06	2.87227e-11
-4	14.6	5.25054e-06	2.93032e-11
-4	15.1	3.72924e-06	2.5609e-11
-4	15.6	2.66301e-06	2.88854e-11
-4	16.1	1.91128e-06	2.94272e-11
-4	16.6	1.37831e-06	2.16359e-11
-4	17.1	9.98427e-07	2.32785e-11
-4	17.6	7.26309e-07	2.10525e-11
-4	18.1	5.30462e-07	2.26509e-11
-4	18.6	3.88877e-07	2.74603e-11
-4	19.1	2.8609e-07	2.61061e-11
-4	19.6	2.1117e-07	2.76928e-11
-4	20.1	1.56359e-07	2.7877e-11
-4	20.6	1.16115e-07	2.49869e-11
-4	21.1	8.64678e-08	2.79894e-11
-4	21.6	6.45581e-08	2.58214e-11
-4	22.1	4.83182e-08	2.78891e-11
-4	22.6	3.62467e-08	2.54757e-11
-4	23.1	2.72498e-08	2.80747e-11
-4	23.6	2.05276e-08	2.65693e-11
-4	24.1	1.5493e-08	2.45824e-11
-4	24.6	1.1714e-08	1.84841e-11
-4	25.1	8.87148e-09	2.41807e-11
-4	25.6	6.72915e-09	1.83995e-11
-4	26.1	5.11154e-09	2.29282e-11
-4	26.6	3.888e-09	1.75449e-11
-4	27.1	2.96102e-09	1.34548e-11
-4	27.6	2.25767e-09	2.31758e-11
-4	28.1	1.72321e-09	1.78016e-11
-4	28.6	1.31658e-09	2.46363e-11
-4	29.1	1.0068e-09	1.88653e-11
-4	29.6	7.70531e-10	2.40483e-11
-4	30.1	5.90144e-10	1.8236e-11
-4	30.6	4.52324e-10	2.27351e-11
-4	31.1	3.46868e-10	1.73559e-11
-4	31.6	2.66213e-10	2.33225e-11
-4	32.1	2.04445e-10	2.66451e-11
-4	32.6	1.56992e-10	2.00827e-11
-4	33.1	1.20751e-10	2.40104e-11
-4	33.6	9.31028e-11	2.94833e-11
-4	34.1	7.15519e-11	2.24927e-11
-4	34.6	5.54556e-11	2.7788e-11
-4	35.1	4.26305e-11	2.12235e-11
-4	35.6	3.27719e-11	1.62072e-11
-4	36.1	2.66189e-11	2.88473e-11
-4	36.6	2.04554e-11	2.20241e-11
-4	37.1	1.63768e-11	2.37845e-11
-4	37.6	1.25986e-11	1.82572e-11
-4	38.1	9.68851e-12	1.40044e-11
-4	38.6	7.44747e-12	1.07339e-11
-4	39.1	5.72214e-12	8.22012e-12
-4	39.6	4.39426e-12	6.28917e-12
-4	40.1	3.37588e-12	4.82768e-12
-3.5	0.1	0.116457	2.86948e-11
-3.5	0.6	0.393683	2.9432e-11
-3.5	1.1	0.448246	2.94358e-11
-3.5	1.6	0.389876	2.95719e-11
-3.5	2.1	0.298342	2.92877e-11
-3.5	2.6	0.211725	2.91578e-11
-3.5	3.1	0.142644	2.93551e-11
-3.5	3.6	0.0928321	2.95193e-11
-3.5	4.1	0.0591577	2.93795e-11
-3.5	4.6	0.0373009	2.91668e-11
-3.5	5.1	0.0234517	2.91795e-11
-3.5	5.6	0.0147828	2.92108e-11
-3.5	6.1	0.00937764	2.92471e-11
-3.5	6.6	0.00600129	2.95026e-11
-3.5	7.1	0.00388021	2.93322e-11
-3.5	7.6	0.00253674	2.94481e-11
-3.5	8.1	0.00167747	2.87588e-11
-3.5	8.6	0.00112203	2.84678e-11
-3.5	9.1	0.000759001	2.92286e-11
-3.5	9.6	0.000519072	2.84217e-11
-3.5	10.1	0.000358744	2.8071e-11
-3.5	10.6	0.000250449	2.7304e-11
-3.5	11.1	0.000176532	2.86617e-11
-3.5	11.6	0.000125572	2.75792e-11
-3.5	12.1	9.01e-05	2.74367e-11
-3.5	12.6	6.51808e-05	2.69753e-11
-3.5	13.1	4.75214e-05	2.80989e-11
-3.5	13.6	3.49022e-05	2.92124e-11
-3.5	14.1	2.5813e-05	2.6245e-11
-3.5	14.6	1.92171e-05	2.85046e-11
-3.5	15.1	1.43961e-05	2.94444e-11
-3.5	15.6	1.08485e-05	2.87307e-11
-3.5	16.1	8.22104e-06	2.77787e-11
-3.5	16.6	6.26313e-06	2.5313e-11
-3.5	17.1	4.79564e-06	2.391e-11
-3.5	17.6	3.6896e-06	2.62481e-11
-3.5	18.1	2.8516e-06	2.43651e-11
-3.5	18.6	2.21348e-06	2.51987e-11
-3.5	19.1	1.72524e-06	2.21555e-11
-3.5	19.6	1.34998e-06	2.36585e-11
-3.5	20.1	1.06028e-06	2.56112e-11
-3.5	20.6	8.35725e-07	2.87279e-11
-3.5	21.1	6.60965e-07	2.56165e-11
-3.5	21.6	5.24446e-07	2.54595e-11
-3.5	22.1	4.17413e-07	2.85882e-11
-3.5	22.6	3.33207e-07	2.74294e-11
-3.5	23.1	2.66741e-07	2.65208e-11
-3.5	23.6	2.14111e-07	2.8656e-11
-3.5	24.1	1.7231e-07	2.95745e-11
-3.5	24.6	1.39014e-07	2.89377e-11
-3.5	25.1	1.12418e-07	2.80377e-11
-3.5	25.6	9.11167e-08	2.57726e-11
-3.5	26.1	7.40128e-08	2.65635e-11
-3.5	26.6	6.02452e-08	2.67729e-11
-3.5	27.1	4.9137e-08	2.75275e-11
-3.5	27.6	4.0154e-08	2.29059e-11
-3.5	28.1	3.28738e-08	2.51901e-11
-3.5	28.6	2.69613e-08	2.1101e-11
-3.5	29.1	2.21498e-08	2.49134e-11
-3.5	29.6	1.82267e-08	2.09046e-11
-3.5	30.1	1.50221e-08	1.75486e-11
-3.5	30.6	1.23995e-08	2.52409e-11
-3.5	31.1	1.02497e-08	2.1048e-11
-3.5	31.6	8.48437e-09	2.79627e-11
-3.5	32.1	7.03253e-09	2.32433e-11
-3.5	32.6	5.83663e-09	1.93403e-11
-3.5	33.1	4.85009e-09	1.64679e-11
-3.5	33.6	4.0351e-09	2.79372e-11
-3.5	34.1	3.3609e-09	2.30153e-11
-3.5	34.6	2.80242e-09	2.37577e-11
-3.5	35.1	2.33923e-09	2.92178e-11
-3.5	35.6	1.95458e-09	2.30852e-11
-3.5	36.1	1.63478e-09	2.52279e-11
-3.5	36.6	1.36859e-09	2.61274e-11
-3.5	37.1	1.14679e-09	2.80354e-11
-3.5	37.6	9.61753e-10	2.17022e-11
-3.5	38.1	8.07249e-10	1.92752e-11
-3.5	38.6	6.78156e-10	2.84723e-11
-3.5	39.1	5.70099e-10	2.32993e-11
-3.5	39.6	4.79613e-10	1.90933e-11
-3.5	40.1	4.03865e-10	2.88599e-11
-3	0.1	0.119797	2.8767e-11
-3	0.6	0.395372	2.92181e-11
-3	1.1	0.459471	2.93821e-11
-3	1.6	0.411289	2.94433e-11
-3	2.1	0.324117	2.93386e-11
-3	2.6	0.235445	2.95665e-11
-3	3.1	0.162327	2.94905e-11
-3	3.6	0.108191	2.94445e-11
-3	4.1	0.0706512	2.91321e-11
-3	4.6	0.0456722	2.92337e-11
-3	5.1	0.029451	2.91188e-11
-3	5.6	0.0190468	2.92975e-11
-3	6.1	0.0123999	2.91931e-11
-3	6.6	0.00814587	2.89805e-11
-3	7.1	0.00540767	2.93992e-11
-3	7.6	0.00363063	2.94596e-11
-3	8.1	0.00246602	2.94201e-11
-3	8.6	0.00169456	2.91906e-11
-3	9.1	0.00117782	2.8649e-11
-3	9.6	0.000827797	2.84729e-11
-3	10.1	0.000588046	2.7994e-11
-3	10.6	0.000422032	2.85008e-11
-3	11.1	0.000305858	2.82976e-11
-3	11.6	0.000223733	2.92712e-11
-3	12.1	0.000165109	2.95698e-11
-3	12.6	0.00012287	2.88135e-11
-3	13.1	9.21644e-05	2.69926e-11
-3	13.6	6.9654e-05	2.78708e-11
-3	14.1	5.30178e-05	2.85626e-11
-3	14.6	4.06285e-05	2.88288e-11
-3	15.1	3.13343e-05	2.1982e-11
-3	15.6	2.43136e-05	2.41518e-11
-3	16.1	1.89751e-05	2.90832e-11
-3	16.6	1.48902e-05	2.5151e-11
-3	17.1	1.17457e-05	2.52089e-11
-3	17.6	9.31134e-06	2.61303e-11
-3	18.1	7.41645e-06	2.59138e-11
-3	18.6	5.93382e-06	2.6363e-11
-3	19.1	4.768e-06	2.89141e-11
-3	19.6	3.84696e-06	2.83538e-11
-3	20.1	3.116e-06	2.84902e-11
-3	20.6	2.53339e-06	2.78307e-11
-3	21.1	2.06709e-06	2.87966e-11
-3	21.6	1.6924e-06	2.87923e-11
-3	22.1	1.39018e-06	2.73349e-11
-3	22.6	1.14553e-06	2.94977e-11
-3	23.1	9.46782e-07	2.52389e-11
-3	23.6	7.84786e-07	2.62738e-11
-3	24.1	6.52318e-07	2.67754e-11
-3	24.6	5.43661e-07	2.76747e-11
-3	25.1	4.54268e-07	2.57908e-11
-3	25.6	3.80513e-07	2.79025e-11
-3	26.1	3.19492e-07	2.33595e-11
-3	26.6	2.68872e-07	2.64929e-11
-3	27.1	2.26773e-07	2.21464e-11
-3	27.6	1.91673e-07	2.91034e-11
-3	28.1	1.62339e-07	2.3917e-11
-3	28.6	1.37768e-07	1.88531e-11
-3	29.1	1.17139e-07	2.43768e-11
-3	29.6	9.97841e-08	2.00868e-11
-3	30.1	8.51521e-08	1.66272e-11
-3	30.6	7.27916e-08	1.14911e-11
-3	31.1	6.23292e-08	9.59418e-12
-3	31.6	5.3457e-08	8.02268e-12
-3	32.1	4.59196e-08	6.71882e-12
-3	32.6	3.95048e-08	5.6349e-12
-3	33.1	3.4036e-08	2.72352e-11
-3	33.6	2.93661e-08	1.54259e-11
-3	34.1	2.53719e-08	2.82612e-11
-3	34.6	2.19503e-08	2.40299e-11
-3	35.1	1.90148e-08	2.88897e-11
-3	35.6	1.64927e-08	2.43089e-11
-3	36.1	1.43226e-08	2.18731e-11
-3	36.6	1.24528e-08	2.55525e-11
-3	37.1	1.08396e-08	2.7229e-11
-3	37.6	9.44589e-09	2.7834e-11
-3	38.1	8.24037e-09	2.65798e-11
-3	38.6	7.19633e-09	2.00318e-11
-3	39.1	6.29102e-09	1.72927e-11
-3	39.6	5.50509e-09	1.72896e-11
-3	40.1	4.82203e-09	1.69469e-11
-2.5	0.1	0.12026	2.82154e-11
-2.5	0.6	0.39029	2.95208e-11
-2.5	1.1	0.461059	2.96205e-11
-2.5	1.6	0.421753	2.95203e-11
-2.5	2.1	0.339458	2.96257e-11
-2.5	2.6	0.251562	2.92308e-11
-2.5	3.1	0.17626	2.92945e-11
-2.5	3.6	0.119065	2.94954e-11
-2.5	4.1	0.0787107	2.92617e-11
-2.5	4.6	0.0515895	2.90422e-11
-2.5	5.1	0.0337717	2.90084e-11
-2.5	5.6	0.0221762	2.9389e-11
-2.5	6.1	0.0146608	2.91618e-11
-2.5	6.6	0.00978135	2.89824e-11
-2.5	7.1	0.00659532	2.94497e-11
-2.5	7.6	0.00449789	2.91496e-11
-2.5	8.1	0.00310353	2.89023e-11
-2.5	8.6	0.00216661	2.88069e-11
-2.5	9.1	0.00153002	2.87978e-11
-2.5	9.6	0.0010926	2.91834e-11
-2.5	10.1	0.000788669	2.8877e-11
-2.5	10.6	0.000575174	2.84459e-11
-2.5	11.1	0.000423614	2.95008e-11
-2.5	11.6	0.000314919	2.93455e-11
-2.5	12.1	0.000236202	2.85606e-11
-2.5	12.6	0.000178659	2.93184e-11
-2.5	13.1	0.000136218	2.74158e-11
-2.5	13.6	0.000104648	2.84963e-11
-2.5	14.1	8.0974e-05	2.94913e-11
-2.5	14.6	6.30836e-05	2.61764e-11
-2.5	15.1	4.94643e-05	2.64246e-11
-2.5	15.6	3.90239e-05	2.34668e-11
-2.5	16.1	3.0967e-05	2.82606e-11
-2.5	16.6	2.471e-05	2.35616e-11
-2.5	17.1	1.98214e-05	2.49776e-11
-2.5	17.6	1.59799e-05	2.69173e-11
-2.5	18.1	1.29446e-05	2.88669e-11
-2.5	18.6	1.05338e-05	2.95116e-11
-2.5	19.1	8.60927e-06	2.88805e-11
-2.5	19.6	7.06567e-06	2.70434e-11
-2.5	20.1	5.82189e-06	2.86434e-11
-2.5	20.6	4.81531e-06	2.56284e-11
-2.5	21.1	3.99727e-06	2.49729e-11
-2.5	21.6	3.32977e-06	2.71179e-11
-2.5	22.1	2.78302e-06	2.55157e-11
-2.5	22.6	2.3335e-06	2.69754e-11
-2.5	23.1	1.96262e-06	2.82118e-11
-2.5	23.6	1.65558e-06	2.43998e-11
-2.5	24.1	1.40054e-06	2.56732e-11
-2.5	24.6	1.18803e-06	2.89072e-11
-2.5	25.1	1.01042e-06	2.45382e-11
-2.5	25.6	8.61542e-07	2.54083e-11
-2.5	26.1	7.36396e-07	2.64398e-11
-2.5	26.6	6.30913e-07	2.60679e-11
-2.5	27.1	5.41769e-07	2.81889e-11
-2.5	27.6	4.66241e-07	2.37676e-11
-2.5	28.1	4.02093e-07	2.0095e-11
-2.5	28.6	3.47481e-07	2.85128e-11
-2.5	29.1	3.00881e-07	2.36666e-11
-2.5	29.6	2.6103e-07	2.6149e-11
-2.5	30.1	2.26878e-07	2.95231e-11
-2.5	30.6	1.97547e-07	2.50875e-11
-2.5	31.1	1.72307e-07	2.13563e-11
-2.5	31.6	1.50546e-07	1.8248e-11
-2.5	32.1	1.31748e-07	1.56936e-11
-2.5	32.6	1.15479e-07	1.35155e-11
-2.5	33.1	1.01375e-07	1.03491e-11
-2.5	33.6	8.91266e-08	2.85558e-11
-2.5	34.1	7.84716e-08	2.48459e-11
-2.5	34.6	6.91876e-08	2.1631e-11
-2.5	35.1	6.10855e-08	4.31483e-12
-2.5	35.6	5.40038e-08	2.26596e-11
-2.5	36.1	4.78048e-08	2.47713e-11
-2.5	36.6	4.23707e-08	2.53111e-11
-2.5	37.1	3.76002e-08	2.81917e-11
-2.5	37.6	3.34065e-08	2.90039e-11
-2.5	38.1	2.9715e-08	2.60911e-11
-2.5	38.6	2.64613e-08	2.87346e-11
-2.5	39.1	2.35898e-08	2.44127e-11
-2.5	39.6	2.10524e-08	2.76591e-11
-2.5	40.1	1.88077e-08	1.62405e-11
-2	0.1	0.118346	2.87033e-11
-2	0.6	0.38017	2.95741e-11
-2	1.1	0.455804	2.94868e-11
-2	1.6	0.424617	2.96159e-11
-2	2.1	0.34763	2.93227e-11
-2	2.6	0.261606	2.95868e-11
-2	3.1	0.185818	2.93668e-11
-2	3.6	0.127054	2.93569e-11
-2	4.1	0.0849148	2.96264e-11
-2	4.6	0.0561166	2.93816e-11
-2	5.1	0.0369799	2.91224e-11
-2	5.6	0.024443	2.89083e-11
-2	6.1	0.0162691	2.88119e-11
-2	6.6	0.0109314	2.9116e-11
-2	7.1	0.00742633	2.92328e-11
-2	7.6	0.00511183	2.9034e-11
-2	8.1	0.00356014	2.90372e-11
-2	8.6	0.00250869	2.8853e-11
-2	9.1	0.00178826	2.87463e-11
-2	9.6	0.00128906	2.92131e-11
-2	10.1	0.000939277	2.90455e-11
-2	10.6	0.000691505	2.88361e-11
-2	11.1	0.000514129	2.95508e-11
-2	11.6	0.000385848	2.80589e-11
-2	12.1	0.000292162	2.86662e-11
-2	12.6	0.000223098	2.91185e-11
-2	13.1	0.00017173	2.90245e-11
-2	13.6	0.000133196	2.95365e-11
-2	14.1	0.000104054	2.90078e-11
-2	14.6	8.18456e-05	2.7865e-11
-2	15.1	6.47953e-05	2.48399e-11
-2	15.6	5.16135e-05	2.43372e-11
-2	16.1	4.13543e-05	2.71916e-11
-2	16.6	3.33189e-05	2.28648e-11
-2	17.1	2.69872e-05	2.54346e-11
-2	17.6	2.1969e-05	2.89146e-11
-2	18.1	1.797e-05	2.69503e-11
-2	18.6	1.47663e-05	2.58789e-11
-2	19.1	1.21869e-05	2.65731e-11
-2	19.6	1.01001e-05	2.85869e-11
-2	20.1	8.40414e-06	2.4457e-11
-2	20.6	7.01968e-06	2.36816e-11
-2	21.1	5.88476e-06	2.57063e-11
-2	21.6	4.95064e-06	2.80849e-11
-2	22.1	4.17881e-06	2.82871e-11
-2	22.6	3.5387e-06	2.45835e-11
-2	23.1	3.00593e-06	2.72721e-11
-2	23.6	2.56098e-06	2.73938e-11
-2	24.1	2.18815e-06	2.75769e-11
-2	24.6	1.87474e-06	2.95864e-11
-2	25.1	1.61049e-06	2.53061e-11
-2	25.6	1.38702e-06	2.66419e-11
-2	26.1	1.19751e-06	2.82585e-11
-2	26.6	1.03635e-06	2.90585e-11
-2	27.1	8.98931e-07	2.48898e-11
-2	27.6	7.81465e-07	2.54151e-11
-2	28.1	6.80803e-07	2.3021e-11
-2	28.6	5.94335e-07	2.53878e-11
-2	29.1	5.19887e-07	2.16591e-11
-2	29.6	4.55646e-07	2.81657e-11
-2	30.1	4.00092e-07	2.37746e-11
-2	30.6	3.5195e-07	2.76447e-11
-2	31.1	3.10145e-07	2.3682e-11
-2	31.6	2.73772e-07	2.82538e-11
-2	32.1	2.42065e-07	2.62978e-11
-2	32.6	2.14374e-07	2.30242e-11
-2	33.1	1.90147e-07	1.53614e-11
-2	33.6	1.68913e-07	1.33375e-11
-2	34.1	1.5027e-07	1.16076e-11
-2	34.6	1.33877e-07	1.01265e-11
-2	35.1	1.19438e-07	8.85226e-12
-2	35.6	1.067e-07	2.1677e-11
-2	36.1	9.54455e-08	2.25636e-11
-2	36.6	8.54877e-08	2.05962e-11
-2	37.1	7.66642e-08	2.17234e-11
-2	37.6	6.88348e-08	2.04669e-11
-2	38.1	6.1878e-08	1.91558e-11
-2	38.6	5.56884e-08	1.67146e-11
-2	39.1	5.01743e-08	1.47237e-11
-2	39.6	4.52556e-08	1.7139e-11
-2	40.1	4.08626e-08	2.91577e-11
-1.5	0.1	0.114464	2.88223e-11
-1.5	0.6	0.366225	2.93491e-11
-1.5	1.1	0.445569	2.9561e-11
-1.5	1.6	0.422151	2.955e-11
-1.5	2.1	0.350889	2.95159e-11
-1.5	2.6	0.267535	2.92329e-11
-1.5	3.1	0.19213	2.93368e-11
-1.5	3.6	0.132576	2.91791e-11
-1.5	4.1	0.0892865	2.91277e-11
-1.5	4.6	0.0593938	2.95412e-11
-1.5	5.1	0.0393669	2.90881e-11
-1.5	5.6	0.0261589	2.95146e-11
-1.5	6.1	0.0174983	2.90204e-11
-1.5	6.6	0.0118141	2.93516e-11
-1.5	7.1	0.00806341	2.87552e-11
-1.5	7.6	0.00556813	2.96037e-11
-1.5	8.1	0.00389148	2.90695e-11
-1.5	8.6	0.00275252	2.86498e-11
-1.5	9.1	0.00196997	2.96093e-11
-1.5	9.6	0.00142609	2.94625e-11
-1.5	10.1	0.00104376	2.80072e-11
-1.5	10.6	0.000771986	2.90232e-11
-1.5	11.1	0.000576711	2.8604e-11
-1.5	11.6	0.000434942	2.92193e-11
-1.5	12.1	0.000331145	2.82471e-11
-1.5	12.6	0.000254276	2.91252e-11
-1.5	13.1	0.000196821	2.82951e-11
-1.5	13.6	0.00015351	2.91498e-11
-1.5	14.1	0.000120595	2.81622e-11
-1.5	14.6	9.53871e-05	2.95735e-11
-1.5	15.1	7.59393e-05	2.90574e-11
-1.5	15.6	6.08299e-05	2.91594e-11
-1.5	16.1	4.90127e-05	2.51758e-11
-1.5	16.6	3.97115e-05	2.7139e-11
-1.5	17.1	3.23461e-05	2.30858e-11
-1.5	17.6	2.648e-05	2.65862e-11
-1.5	18.1	2.17821e-05	2.41635e-11
-1.5	18.6	1.8e-05	2.45737e-11
-1.5	19.1	1.49398e-05	2.57092e-11
-1.5	19.6	1.24518e-05	2.63631e-11
-1.5	20.1	1.04197e-05	2.67719e-11
-1.5	20.6	8.75268e-06	2.77097e-11
-1.5	21.1	7.3793e-06	2.31149e-11
-1.5	21.6	6.24329e-06	2.52012e-11
-1.5	22.1	5.29997e-06	2.65801e-11
-1.5	22.6	4.51374e-06	2.32111e-11
-1.5	23.1	3.85609e-06	2.45615e-11
-1.5	23.6	3.30409e-06	2.32992e-11
-1.5	24.1	2.83924e-06	2.46092e-11
-1.5	24.6	2.44654e-06	2.65829e-11
-1.5	25.1	2.11376e-06	2.81342e-11
-1.5	25.6	1.83092e-06	2.34999e-11
-1.5	26.1	1.58985e-06	2.59947e-11
-1.5	26.6	1.38382e-06	2.80327e-11
-1.5	27.1	1.20726e-06	2.95672e-11
-1.5	27.6	1.05557e-06	2.56064e-11
-1.5	28.1	9.24917e-07	2.71614e-11
-1.5	28.6	8.1212e-07	2.39242e-11
-1.5	29.1	7.14512e-07	2.61714e-11
-1.5	29.6	6.29858e-07	2.24985e-11
-1.5	30.1	5.56279e-07	2.90381e-11
-1.5	30.6	4.92191e-07	2.48942e-11
-1.5	31.1	4.36256e-07	2.16844e-11
-1.5	31.6	3.87341e-07	2.59568e-11
-1.5	32.1	3.44482e-07	2.25802e-11
-1.5	32.6	3.0686e-07	2.91248e-11
-1.5	33.1	2.73774e-07	1.92964e-11
-1.5	33.6	2.44628e-07	1.69749e-11
-1.5	34.1	2.18907e-07	1.49751e-11
-1.5	34.6	1.96173e-07	1.37621e-11
-1.5	35.1	1.76045e-07	2.08935e-11
-1.5	35.6	1.58197e-07	2.24245e-11
-1.5	36.1	1.42346e-07	2.54476e-11
-1.5	36.6	1.28249e-07	2.18661e-11
-1.5	37.1	1.15692e-07	2.87724e-11
-1.5	37.6	1.04492e-07	2.83659e-11
-1.5	38.1	9.44888e-08	2.53637e-11
-1.5	38.6	8.55423e-08	2.22188e-11
-1.5	39.1	7.75304e-08	2.02184e-11
-1.5	39.6	7.03464e-08	2.60765e-11
-1.5	40.1	6.3896e-08	2.53918e-11
-1	0.1	0.108946	2.95708e-11
-1	0.6	0.349275	2.93029e-11
-1	1.1	0.431566	2.94205e-11
-1	1.6	0.41579	2.94509e-11
-1	2.1	0.350715	2.92318e-11
-1	2.6	0.270694	2.96058e-11
-1	3.1	0.196309	2.93146e-11
-1	3.6	0.136493	2.96199e-11
-1	4.1	0.0924619	2.93088e-11
-1	4.6	0.0617844	2.9378e-11
-1	5.1	0.0410989	2.96017e-11
-1	5.6	0.0273915	2.88827e-11
-1	6.1	0.0183707	2.85689e-11
-1	6.6	0.0124329	2.88078e-11
-1	7.1	0.00850522	2.88375e-11
-1	7.6	0.00588648	2.96316e-11
-1	8.1	0.00412329	2.91936e-11
-1	8.6	0.0029232	2.85601e-11
-1	9.1	0.00209705	2.91488e-11
-1	9.6	0.00152174	2.89037e-11
-1	10.1	0.00111651	2.8473e-11
-1	10.6	0.000827879	2.89026e-11
-1	11.1	0.000620062	2.90466e-11
-1	11.6	0.000468866	2.78615e-11
-1	12.1	0.000357762	2.80693e-11
-1	12.6	0.000275338	2.86855e-11
-1	13.1	0.000213633	2.95998e-11
-1	13.6	0.000167036	2.83656e-11
-1	14.1	0.000131559	2.72321e-11
-1	14.6	0.000104335	2.87555e-11
-1	15.1	8.32883e-05	2.95109e-11
-1	15.6	6.69018e-05	2.82886e-11
-1	16.1	5.40573e-05	2.76364e-11
-1	16.6	4.39245e-05	2.54185e-11
-1	17.1	3.58818e-05	2.77226e-11
-1	17.6	2.9461e-05	2.96049e-11
-1	18.1	2.43063e-05	2.7473e-11
-1	18.6	2.01462e-05	2.77232e-11
-1	19.1	1.67718e-05	2.64572e-11
-1	19.6	1.40228e-05	2.84342e-11
-1	20.1	1.17719e-05	2.91569e-11
-1	20.6	9.9201e-06	2.3877e-11
-1	21.1	8.39032e-06	2.5747e-11
-1	21.6	7.12141e-06	2.73794e-11
-1	22.1	6.0648e-06	2.20397e-11
-1	22.6	5.18168e-06	2.54008e-11
-1	23.1	4.44092e-06	2.38037e-11
-1	23.6	3.81743e-06	2.83365e-11
-1	24.1	3.29091e-06	2.88795e-11
-1	24.6	2.84486e-06	2.70133e-11
-1	25.1	2.46581e-06	2.66375e-11
-1	25.6	2.14276e-06	2.50684e-11
-1	26.1	1.86663e-06	2.82737e-11
-1	26.6	1.62997e-06	2.4475e-11
-1	27.1	1.4266e-06	2.68204e-11
-1	27.6	1.25138e-06	2.5564e-11
-1	28.1	1.10004e-06	2.96125e-11
-1	28.6	9.69016e-07	2.62949e-11
-1	29.1	8.55313e-07	2.89598e-11
-1	29.6	7.56422e-07	2.50042e-11
-1	30.1	6.70226e-07	2.19446e-11
-1	30.6	5.94937e-07	2.82195e-11
-1	31.1	5.2904e-07	2.47529e-11
-1	31.6	4.71249e-07	2.18037e-11
-1	32.1	4.2047e-07	2.60417e-11
-1	32.6	3.75769e-07	2.28571e-11
-1	33.1	3.36347e-07	2.23393e-11
-1	33.6	3.0152e-07	1.97563e-11
-1	34.1	2.70699e-07	1.75049e-11
-1	34.6	2.43378e-07	1.55356e-11
-1	35.1	2.19121e-07	2.55587e-11
-1	35.6	1.9755e-07	2.79362e-11
-1	36.1	1.78339e-07	1.90258e-11
-1	36.6	1.61204e-07	2.64717e-11
-1	37.1	1.45897e-07	2.35697e-11
-1	37.6	1.32206e-07	2.19494e-11
-1	38.1	1.19943e-07	2.93752e-11
-1	38.6	1.08943e-07	2.55985e-11
-1	39.1	9.90648e-08	2.34271e-11
-1	39.6	9.01805e-08	2.41981e-11
-1	40.1	8.21825e-08	2.64036e-11
-0.5	0.1	0.102063	2.91285e-11
-0.5	0.6	0.329851	2.96302e-11
-0.5	1.1	0.414481	2.96299e-11
-0.5	1.6	0.40636	2.94394e-11
-0.5	2.1	0.347974	2.95204e-11
-0.5	2.6	0.271903	2.94359e-11
-0.5	3.1	0.199063	2.94558e-11
-0.5	3.6	0.13937	2.94783e-11
-0.5	4.1	0.0948712	2.93827e-11
-0.5	4.6	0.0636046	2.90022e-11
-0.5	5.1	0.0424036	2.90068e-11
-0.5	5.6	0.0283032	2.93699e-11
-0.5	6.1	0.0190019	2.96022e-11
-0.5	6.6	0.01287	2.90852e-11
-0.5	7.1	0.00880988	2.94127e-11
-0.5	7.6	0.00610094	2.9572e-11
-0.5	8.1	0.00427606	2.95757e-11
-0.5	8.6	0.00303342	2.85449e-11
-0.5	9.1	0.00217761	2.91368e-11
-0.5	9.6	0.00158138	2.91538e-11
-0.5	10.1	0.00116121	2.94457e-11
-0.5	10.6	0.000861778	2.80296e-11
-0.5	11.1	0.000646057	2.96109e-11
-0.5	11.6	0.000489011	2.81472e-11
-0.5	12.1	0.000373526	2.80892e-11
-0.5	12.6	0.000287787	2.86157e-11
-0.5	13.1	0.000223548	2.95582e-11
-0.5	13.6	0.000174997	2.912e-11
-0.5	14.1	0.000137998	2.92175e-11
-0.5	14.6	0.000109579	2.93536e-11
-0.5	15.1	8.75879e-05	2.94815e-11
-0.5	15.6	7.04484e-05	2.75021e-11
-0.5	16.1	5.69996e-05	2.80006e-11
-0.5	16.6	4.63786e-05	2.30866e-11
-0.5	17.1	3.79392e-05	2.58278e-11
-0.5	17.6	3.11941e-05	2.3585e-11
-0.5	18.1	2.57729e-05	2.65853e-11
-0.5	18.6	2.13926e-05	2.39736e-11
-0.5	19.1	1.78353e-05	2.53579e-11
-0.5	19.6	1.49323e-05	2.90424e-11
-0.5	20.1	1.25523e-05	2.90022e-11
-0.5	20.6	1.05923e-05	2.88767e-11
-0.5	21.1	8.97144e-06	2.95807e-11
-0.5	21.6	7.62548e-06	2.44403e-11
-0.5	22.1	6.50344e-06	2.48452e-11
-0.5	22.6	5.56455e-06	2.67152e-11
-0.5	23.1	4.77609e-06	2.18531e-11
-0.5	23.6	4.11166e-06	2.39443e-11
-0.5	24.1	3.54988e-06	2.61701e-11
-0.5	24.6	3.07337e-06	2.91735e-11
-0.5	25.1	2.66794e-06	2.55597e-11
-0.5	25.6	2.32196e-06	2.87508e-11
-0.5	26.1	2.02586e-06	2.40301e-11
-0.5	26.6	1.77176e-06	2.70248e-11
-0.5	27.1	1.55311e-06	2.33881e-11
-0.5	27.6	1.36448e-06	2.57264e-11
-0.5	28.1	1.20135e-06	2.88897e-11
-0.5	28.6	1.05993e-06	2.89244e-11
-0.5	29.1	9.37042e-07	2.45943e-11
-0.5	29.6	8.30018e-07	2.67327e-11
-0.5	30.1	7.36608e-07	2.35392e-11
-0.5	30.6	6.54906e-07	2.10863e-11
-0.5	31.1	5.833e-07	2.65153e-11
-0.5	31.6	5.20417e-07	2.35271e-11
-0.5	32.1	4.651e-07	2.80224e-11
-0.5	32.6	4.16338e-07	2.46362e-11
-0.5	33.1	3.73273e-07	2.40062e-11
-0.5	33.6	3.35173e-07	2.1279e-11
-0.5	34.1	3.01407e-07	1.88964e-11
-0.5	34.6	2.71434e-07	1.68076e-11
-0.5	35.1	2.44784e-07	2.89837e-11
-0.5	35.6	2.21051e-07	2.16648e-11
-0.5	36.1	1.99883e-07	2.39768e-11
-0.5	36.6	1.80976e-07	2.90826e-11
-0.5	37.1	1.64063e-07	2.51387e-11
-0.5	37.6	1.48913e-07	2.32093e-11
-0.5	38.1	1.35323e-07	1.96997e-11
-0.5	38.6	1.23117e-07	2.10992e-11
-0.5	39.1	1.12138e-07	2.00693e-11
-0.5	39.6	1.02251e-07	2.21089e-11
-0.5	40.1	9.33368e-08	2.94801e-11
0	0.1	0.0940401	2.87198e-11
0	0.6	0.308277	2.95228e-11
0	1.1	0.394634	2.94136e-11
0	1.6	0.394245	2.9521e-11
0	2.1	0.343079	2.96002e-11
0	2.6	0.27157	2.96108e-11
0	3.1	0.200762	2.96043e-11
0	3.6	0.141519	2.95228e-11
0	4.1	0.0967578	2.91555e-11
0	4.6	0.0650363	2.92189e-11
0	5.1	0.0434134	2.92806e-11
0	5.6	0.0289892	2.87991e-11
0	6.1	0.0194598	2.95973e-11
0	6.6	0.0131742	2.94413e-11
0	7.1	0.00901254	2.93718e-11
0	7.6	0.00623702	2.92897e-11
0	8.1	0.00436845	2.89662e-11
0	8.6	0.00309696	2.86184e-11
0	9.1	0.00222192	2.89993e-11
0	9.6	0.00161272	2.90141e-11
0	10.1	0.0011837	2.9143e-11
0	10.6	0.000878151	2.93157e-11
0	11.1	0.000658138	2.92216e-11
0	11.6	0.000498042	2.77761e-11
0	12.1	0.000380362	2.75606e-11
0	12.6	0.000293022	2.85317e-11
0	13.1	0.000227602	2.9262e-11
0	13.6	0.000178169	2.91637e-11
0	14.1	0.000140505	2.90539e-11
0	14.6	0.000111579	2.84973e-11
0	15.1	8.9196e-05	2.79675e-11
0	15.6	7.17521e-05	2.79372e-11
0	16.1	5.80645e-05	2.82291e-11
0	16.6	4.72545e-05	2.33032e-11
0	17.1	3.86644e-05	2.47731e-11
0	17.6	3.17981e-05	2.66393e-11
0	18.1	2.62789e-05	2.72434e-11
0	18.6	2.18187e-05	2.696e-11
0	19.1	1.8196e-05	2.66056e-11
0	19.6	1.52391e-05	2.96105e-11
0	20.1	1.28143e-05	2.52409e-11
0	20.6	1.08171e-05	2.5886e-11
0	21.1	9.16506e-06	2.5361e-11
0	21.6	7.79286e-06	2.62706e-11
0	22.1	6.64865e-06	2.70062e-11
0	22.6	5.69095e-06	2.89458e-11
0	23.1	4.88647e-06	2.53146e-11
0	23.6	4.20833e-06	2.69527e-11
0	24.1	3.6348e-06	2.6138e-11
0	24.6	3.14817e-06	2.91553e-11
0	25.1	2.734e-06	2.36036e-11
0	25.6	2.38045e-06	2.68632e-11
0	26.1	2.07777e-06	2.84629e-11
0	26.6	1.81794e-06	2.94368e-11
0	27.1	1.59428e-06	2.75574e-11
0	27.6	1.40126e-06	2.93488e-11
0	28.1	1.23428e-06	2.73431e-11
0	28.6	1.08946e-06	2.3464e-11
0	29.1	9.63579e-07	2.6256e-11
0	29.6	8.53909e-07	2.78307e-11
0	30.1	7.58153e-07	2.75992e-11
0	30.6	6.74369e-07	2.33683e-11
0	31.1	6.0091e-07	1.98753e-11
0	31.6	5.36375e-07	2.54133e-11
0	32.1	4.79571e-07	2.18375e-11
0	32.6	4.29477e-07	2.63655e-11
0	33.1	3.85222e-07	2.29775e-11
0	33.6	3.46055e-07	2.00867e-11
0	34.1	3.11333e-07	2.69079e-11
0	34.6	2.80498e-07	1.68093e-11
0	35.1	2.53072e-07	1.48326e-11
0	35.6	2.2864e-07	1.32576e-11
0	36.1	2.06841e-07	2.21046e-11
0	36.6	1.87362e-07	2.48221e-11
0	37.1	1.69932e-07	2.35278e-11
0	37.6	1.54312e-07	1.56391e-11
0	38.1	1.40295e-07	2.58309e-11
0	38.6	1.277e-07	2.48919e-11
0	39.1	1.16368e-07	2.15119e-11
0	39.6	1.06159e-07	2.50786e-11
0	40.1	9.69504e-08	2.32672e-11
0.5	0.1	0.0850701	2.92709e-11
0.5	0.6	0.284719	2.92516e-11
0.5	1.1	0.372095	2.93671e-11
0.5	1.6	0.37951	2.95964e-11
0.5	2.1	0.336097	2.95845e-11
0.5	2.6	0.269782	2.95296e-11
0.5	3.1	0.201506	2.95793e-11
0.5	3.6	0.143033	2.95178e-11
0.5	4.1	0.0982005	2.92198e-11
0.5	4.6	0.0661395	2.93759e-11
0.5	5.1	0.0441717	2.94953e-11
0.5	5.6	0.0294798	2.8991e-11
0.5	6.1	0.0197656	2.91075e-11
0.5	6.6	0.0133602	2.94218e-11
0.5	7.1	0.00912352	2.90693e-11
0.5	7.6	0.00630208	2.91922e-11
0.5	8.1	0.00440577	2.85739e-11
0.5	8.6	0.00311771	2.95271e-11
0.5	9.1	0.00223287	2.8805e-11
0.5	9.6	0.00161795	2.95185e-11
0.5	10.1	0.00118565	2.85861e-11
0.5	10.6	0.000878264	2.91891e-11
0.5	11.1	0.000657285	2.95092e-11
0.5	11.6	0.000496725	2.89919e-11
0.5	12.1	0.000378873	2.86996e-11
0.5	12.6	0.000291523	2.88854e-11
0.5	13.1	0.000226179	2.94681e-11
0.5	13.6	0.000176862	2.91298e-11
0.5	14.1	0.000139329	2.74606e-11
0.5	14.6	0.000110535	2.89955e-11
0.5	15.1	8.82777e-05	2.92283e-11
0.5	15.6	7.09486e-05	2.8623e-11
0.5	16.1	5.73637e-05	2.84963e-11
0.5	16.6	4.66446e-05	2.87211e-11
0.5	17.1	3.8134e-05	2.9274e-11
0.5	17.6	3.13369e-05	2.59809e-11
0.5	18.1	2.58778e-05	2.76303e-11
0.5	18.6	2.14695e-05	2.87656e-11
0.5	19.1	1.78916e-05	2.49961e-11
0.5	19.6	1.49734e-05	2.9401e-11
0.5	20.1	1.25822e-05	2.8854e-11
0.5	20.6	1.06139e-05	2.64053e-11
0.5	21.1	8.98676e-06	2.81065e-11
0.5	21.6	7.6362e-06	2.7912e-11
0.5	22.1	6.51075e-06	2.73681e-11
0.5	22.6	5.56935e-06	2.91224e-11
0.5	23.1	4.77903e-06	2.83752e-11
0.5	23.6	4.11325e-06	2.77814e-11
0.5	24.1	3.55048e-06	2.65521e-11
0.5	24.6	3.07327e-06	2.64925e-11
0.5	25.1	2.66734e-06	2.74844e-11
0.5	25.6	2.32103e-06	2.46181e-11
0.5	26.1	2.02471e-06	2.92658e-11
0.5	26.6	1.77047e-06	2.47584e-11
0.5	27.1	1.55175e-06	2.73892e-11
0.5	27.6	1.3631e-06	2.75957e-11
0.5	28.1	1.19997e-06	2.74427e-11
0.5	28.6	1.05858e-06	2.91724e-11
0.5	29.1	9.35737e-07	2.49879e-11
0.5	29.6	8.28769e-07	2.62526e-11
0.5	30.1	7.35421e-07	2.89209e-11
0.5	30.6	6.53785e-07	2.55435e-11
0.5	31.1	5.82246e-07	2.63412e-11
0.5	31.6	5.19431e-07	2.20694e-11
0.5	32.1	4.64166e-07	2.75053e-11
0.5	32.6	4.15455e-07	2.31015e-11
0.5	33.1	3.72441e-07	2.68931e-11
0.5	33.6	3.34392e-07	2.27998e-11
0.5	34.1	3.00677e-07	2.84153e-11
0.5	34.6	2.70752e-07	2.72386e-11
0.5	35.1	2.44148e-07	2.38541e-11
0.5	35.6	2.20459e-07	2.09064e-11
0.5	36.1	1.99333e-07	1.84815e-11
0.5	36.6	1.80464e-07	1.04341e-11
0.5	37.1	1.63588e-07	9.24838e-12
0.5	37.6	1.48473e-07	8.51179e-12
0.5	38.1	1.34915e-07	2.28034e-11
0.5	38.6	1.22738e-07	2.28577e-11
0.5	39.1	1.11787e-07	2.71205e-11
0.5	39.6	1.01926e-07	2.91837e-11
0.5	40.1	9.30353e-08	2.77205e-11
1	0.1	0.0753162	2.93934e-11
1	0.6	0.259204	2.95778e-11
1	1.1	0.34672	2.94973e-11
1	1.6	0.361937	2.95466e-11
1	2.1	0.326808	2.93598e-11
1	2.6	0.26634	2.93814e-11
1	3.1	0.201141	2.93888e-11
1	3.6	0.143802	2.9261e-11
1	4.1	0.0991176	2.92863e-11
1	4.6	0.0668528	2.92305e-11
1	5.1	0.0446314	2.89794e-11
1	5.6	0.0297389	2.95357e-11
1	6.1	0.0198918	2.94842e-11
1	6.6	0.0134071	2.88969e-11
1	7.1	0.00912718	2.87858e-11
1	7.6	0.00628437	2.91839e-11
1	8.1	0.00437922	2.91256e-11
1	8.6	0.00308906	2.91632e-11
1	9.1	0.00220547	2.91066e-11
1	9.6	0.00159327	2.94717e-11
1	10.1	0.00116415	2.93581e-11
1	10.6	0.000859912	2.82646e-11
1	11.1	0.000641798	2.81259e-11
1	11.6	0.000483746	2.8781e-11
1	12.1	0.000368034	2.81428e-11
1	12.6	0.000282484	2.80198e-11
1	13.1	0.000218641	2.96045e-11
1	13.6	0.00017057	2.85158e-11
1	14.1	0.000134067	2.79147e-11
1	14.6	0.000106125	2.89979e-11
1	15.1	8.45721e-05	2.92225e-11
1	15.6	6.78261e-05	2.80828e-11
1	16.1	5.4725e-05	2.70993e-11
1	16.6	4.44079e-05	2.75833e-11
1	17.1	3.62323e-05	2.87972e-11
1	17.6	2.97152e-05	2.88858e-11
1	18.1	2.44905e-05	2.81243e-11
1	18.6	2.02793e-05	2.76721e-11
1	19.1	1.68675e-05	2.80618e-11
1	19.6	1.40897e-05	2.61693e-11
1	20.1	1.18174e-05	2.70524e-11
1	20.6	9.9502e-06	2.83017e-11
1	21.1	8.40934e-06	2.84245e-11
1	21.6	7.1325e-06	2.56451e-11
1	22.1	6.07025e-06	2.70743e-11
1	22.6	5.18318e-06	2.51338e-11
1	23.1	4.43969e-06	2.74657e-11
1	23.6	3.81437e-06	2.79825e-11
1	24.1	3.28666e-06	2.83592e-11
1	24.6	2.83988e-06	2.6541e-11
1	25.1	2.46045e-06	2.57396e-11
1	25.6	2.13724e-06	2.91461e-11
1	26.1	1.86113e-06	2.81786e-11
1	26.6	1.6246e-06	2.84254e-11
1	27.1	1.42143e-06	2.72249e-11
1	27.6	1.24646e-06	2.62486e-11
1	28.1	1.0954e-06	2.94528e-11
1	28.6	9.64661e-07	2.77582e-11
1	29.1	8.51251e-07	2.75154e-11
1	29.6	7.52648e-07	2.87696e-11
1	30.1	6.6673e-07	2.69912e-11
1	30.6	5.91707e-07	2.81266e-11
1	31.1	5.2606e-07	2.47258e-11
1	31.6	4.68505e-07	2.70619e-11
1	32.1	4.17946e-07	2.40298e-11
1	32.6	3.73449e-07	2.83089e-11
1	33.1	3.34216e-07	2.54408e-11
1	33.6	2.99563e-07	2.7469e-11
1	34.1	2.68903e-07	2.87654e-11
1	34.6	2.4173e-07	2.50623e-11
1	35.1	2.17609e-07	2.66013e-11
1	35.6	1.96163e-07	2.34453e-11
1	36.1	1.77065e-07	2.02851e-11
1	36.6	1.60034e-07	1.7627e-11
1	37.1	1.44824e-07	1.54171e-11
1	37.6	1.3122e-07	1.34914e-11
1	38.1	1.19036e-07	7.91374e-12
1	38.6	1.08109e-07	6.82334e-12
1	39.1	9.82976e-08	5.88636e-12
1	39.6	8.94755e-08	5.00143e-12
1	40.1	8.15332e-08	1.962e-11
1.5	0.1	0.0649144	2.89848e-11
1.5	0.6	0.231626	2.95546e-11
1.5	1.1	0.318152	2.9514e-11
1.5	1.6	0.340972	2.94187e-11
1.5	2.1	0.314724	2.95591e-11
1.5	2.6	0.260769	2.93689e-11
1.5	3.1	0.199255	2.94584e-11
1.5	3.6	0.143491	2.95226e-11
1.5	4.1	0.0992474	2.95699e-11
1.5	4.6	0.0669759	2.94281e-11
1.5	5.1	0.0446415	2.89836e-11
1.5	5.6	0.0296541	2.89546e-11
1.5	6.1	0.0197553	2.90895e-11
1.5	6.6	0.013254	2.91393e-11
1.5	7.1	0.00897863	2.94126e-11
1.5	7.6	0.0061509	2.95981e-11
1.5	8.1	0.00426448	2.9382e-11
1.5	8.6	0.00299299	2.94096e-11
1.5	9.1	0.00212631	2.89422e-11
1.5	9.6	0.00152865	2.77869e-11
1.5	10.1	0.00111165	2.80068e-11
1.5	10.6	0.000817346	2.93795e-11
1.5	11.1	0.000607283	2.92159e-11
1.5	11.6	0.00045572	2.75667e-11
1.5	12.1	0.000345224	2.9128e-11
1.5	12.6	0.000263864	2.7624e-11
1.5	13.1	0.000203388	2.88258e-11
1.5	13.6	0.00015803	2.69836e-11
1.5	14.1	0.000123718	2.91146e-11
1.5	14.6	9.75509e-05	2.8526e-11
1.5	15.1	7.74402e-05	2.7871e-11
1.5	15.6	6.18708e-05	2.92448e-11
1.5	16.1	4.9733e-05	2.80583e-11
1.5	16.6	4.02075e-05	2.8166e-11
1.5	17.1	3.2685e-05	2.76907e-11
1.5	17.6	2.67085e-05	2.95995e-11
1.5	18.1	2.19332e-05	2.90748e-11
1.5	18.6	1.80969e-05	2.76277e-11
1.5	19.1	1.49989e-05	2.93003e-11
1.5	19.6	1.24846e-05	2.90097e-11
1.5	20.1	1.04345e-05	2.69377e-11
1.5	20.6	8.75522e-06	2.76222e-11
1.5	21.1	7.37375e-06	2.14946e-11
1.5	21.6	6.23256e-06	2.67164e-11
1.5	22.1	5.28611e-06	2.95498e-11
1.5	22.6	4.49817e-06	2.91036e-11
1.5	23.1	3.83979e-06	2.74058e-11
1.5	23.6	3.28773e-06	2.86407e-11
1.5	24.1	2.82327e-06	2.60429e-11
1.5	24.6	2.43122e-06	2.80817e-11
1.5	25.1	2.09927e-06	2.82094e-11
1.5	25.6	1.81736e-06	2.73183e-11
1.5	26.1	1.57725e-06	2.86938e-11
1.5	26.6	1.37218e-06	2.91238e-11
1.5	27.1	1.19654e-06	2.92366e-11
1.5	27.6	1.04574e-06	2.93112e-11
1.5	28.1	9.15931e-07	2.4429e-11
1.5	28.6	8.03919e-07	2.87299e-11
1.5	29.1	7.07038e-07	2.57148e-11
1.5	29.6	6.23054e-07	2.44072e-11
1.5	30.1	5.5009e-07	2.86976e-11
1.5	30.6	4.86564e-07	2.63937e-11
1.5	31.1	4.31143e-07	2.34983e-11
1.5	31.6	3.82694e-07	2.66538e-11
1.5	32.1	3.4026e-07	2.8232e-11
1.5	32.6	3.03023e-07	2.39506e-11
1.5	33.1	2.70287e-07	2.78576e-11
1.5	33.6	2.41457e-07	2.5292e-11
1.5	34.1	2.16023e-07	2.68957e-11
1.5	34.6	1.93548e-07	2.81024e-11
1.5	35.1	1.73655e-07	2.91628e-11
1.5	35.6	1.5602e-07	2.56284e-11
1.5	36.1	1.40363e-07	2.68615e-11
1.5	36.6	1.2644e-07	2.66689e-11
1.5	37.1	1.14042e-07	2.37003e-11
1.5	37.6	1.02986e-07	2.10789e-11
1.5	38.1	9.3113e-08	2.77618e-11
1.5	38.6	8.42847e-08	2.48494e-11
1.5	39.1	7.63802e-08	2.22691e-11
1.5	39.6	6.92936e-08	2.79501e-11
1.5	40.1	6.29325e-08	2.32498e-11
2	0.1	0.0539834	2.92887e-11
2	0.6	0.201753	2.95166e-11
2	1.1	0.285808	2.95922e-11
2	1.6	0.315793	2.9556e-11
2	2.1	0.29908	2.94805e-11
2	2.6	0.252304	2.93245e-11
2	3.1	0.195141	2.93292e-11
2	3.6	0.1415	2.95577e-11
2	4.1	0.0981099	2.92578e-11
2	4.6	0.0661383	2.94407e-11
2	5.1	0.0439237	2.91669e-11
2	5.6	0.0290203	2.92417e-11
2	6.1	0.0192067	2.87981e-11
2	6.6	0.0127927	2.89067e-11
2	7.1	0.00860005	2.91027e-11
2	7.6	0.00584556	2.95625e-11
2	8.1	0.00402096	2.91112e-11
2	8.6	0.00280003	2.89861e-11
2	9.1	0.00197386	2.85102e-11
2	9.6	0.00140826	2.87788e-11
2	10.1	0.00101646	2.9489e-11
2	10.6	0.000741866	2.82555e-11
2	11.1	0.000547229	2.8238e-11
2	11.6	0.000407745	2.86673e-11
2	12.1	0.00030673	2.81902e-11
2	12.6	0.000232834	2.79712e-11
2	13.1	0.000178257	2.94428e-11
2	13.6	0.00013758	2.78513e-11
2	14.1	0.000106999	2.69475e-11
2	14.6	8.38186e-05	2.72121e-11
2	15.1	6.61101e-05	2.76934e-11
2	15.6	5.24814e-05	2.93178e-11
2	16.1	4.19185e-05	2.82208e-11
2	16.6	3.36768e-05	2.79327e-11
2	17.1	2.72054e-05	2.72346e-11
2	17.6	2.20931e-05	2.74466e-11
2	18.1	1.80311e-05	2.93638e-11
2	18.6	1.47861e-05	2.82176e-11
2	19.1	1.218e-05	2.83999e-11
2	19.6	1.00766e-05	2.75558e-11
2	20.1	8.3709e-06	2.85781e-11
2	20.6	6.98131e-06	2.95498e-11
2	21.1	5.84435e-06	2.77801e-11
2	21.6	4.91019e-06	2.61814e-11
2	22.1	4.1396e-06	2.94973e-11
2	22.6	3.50149e-06	2.67428e-11
2	23.1	2.97115e-06	2.78164e-11
2	23.6	2.52882e-06	2.48111e-11
2	24.1	2.15864e-06	2.78801e-11
2	24.6	1.84784e-06	2.38198e-11
2	25.1	1.58606e-06	2.48967e-11
2	25.6	1.36493e-06	2.9558e-11
2	26.1	1.17757e-06	2.80159e-11
2	26.6	1.01839e-06	2.90953e-11
2	27.1	8.82776e-07	2.94921e-11
2	27.6	7.66949e-07	2.65277e-11
2	28.1	6.67768e-07	2.71613e-11
2	28.6	5.82634e-07	2.68988e-11
2	29.1	5.09387e-07	2.68782e-11
2	29.6	4.46222e-07	2.35486e-11
2	30.1	3.91633e-07	2.03363e-11
2	30.6	3.44355e-07	2.68293e-11
2	31.1	3.03324e-07	2.85101e-11
2	31.6	2.67643e-07	2.23811e-11
2	32.1	2.36555e-07	2.86622e-11
2	32.6	2.09417e-07	2.7217e-11
2	33.1	1.85685e-07	2.47382e-11
2	33.6	1.64894e-07	2.70778e-11
2	34.1	1.46648e-07	2.53268e-11
2	34.6	1.3061e-07	2.49796e-11
2	35.1	1.16489e-07	2.56374e-11
2	35.6	1.04036e-07	2.47841e-11
2	36.1	9.30383e-08	2.34481e-11
2	36.6	8.33101e-08	2.95157e-11
2	37.1	7.46928e-08	2.78389e-11
2	37.6	6.70488e-08	2.61395e-11
2	38.1	6.02587e-08	2.44585e-11
2	38.6	5.42192e-08	2.86642e-11
2	39.1	4.88401e-08	2.69923e-11
2	39.6	4.40433e-08	2.5361e-11
2	40.1	3.97602e-08	2.37845e-11
2.5	0.1	0.0426616	2.88892e-11
2.5	0.6	0.169297	2.96e-11
2.5	1.1	0.248913	2.95167e-11
2.5	1.6	0.285255	2.95588e-11
2.5	2.1	0.27883	2.95871e-11
2.5	2.6	0.239902	2.94364e-11
2.5	3.1	0.187793	2.92579e-11
2.5	3.6	0.136941	2.95508e-11
2.5	4.1	0.0949754	2.94059e-11
2.5	4.6	0.063774	2.94615e-11
2.5	5.1	0.0420562	2.95352e-11
2.5	5.6	0.0275315	2.9098e-11
2.5	6.1	0.0180285	2.95026e-11
2.5	6.6	0.0118702	2.95131e-11
2.5	7.1	0.00788443	2.95106e-11
2.5	7.6	0.00529372	2.88521e-11
2.5	8.1	0.00359664	2.95939e-11
2.5	8.6	0.00247387	2.94796e-11
2.5	9.1	0.00172274	2.90339e-11
2.5	9.6	0.00121431	2.86836e-11
2.5	10.1	0.000866048	2.78531e-11
2.5	10.6	0.000624675	2.93277e-11
2.5	11.1	0.000455448	2.94923e-11
2.5	11.6	0.000335476	2.81991e-11
2.5	12.1	0.000249511	2.84872e-11
2.5	12.6	0.000187282	2.78495e-11
2.5	13.1	0.000141795	2.90756e-11
2.5	13.6	0.000108238	2.89598e-11
2.5	14.1	8.32634e-05	2.81384e-11
2.5	14.6	6.45209e-05	2.76061e-11
2.5	15.1	5.03438e-05	2.95925e-11
2.5	15.6	3.95394e-05	2.89813e-11
2.5	16.1	3.12466e-05	2.88496e-11
2.5	16.6	2.48384e-05	2.83482e-11
2.5	17.1	1.98546e-05	2.90007e-11
2.5	17.6	1.59548e-05	2.72584e-11
2.5	18.1	1.28856e-05	2.88814e-11
2.5	18.6	1.04567e-05	2.89926e-11
2.5	19.1	8.5243e-06	2.88082e-11
2.5	19.6	6.97921e-06	2.8459e-11
2.5	20.1	5.73786e-06	2.77185e-11
2.5	20.6	4.73596e-06	2.78812e-11
2.5	21.1	3.92379e-06	2.70699e-11
2.5	21.6	3.26265e-06	2.8071e-11
2.5	22.1	2.72231e-06	2.78579e-11
2.5	22.6	2.27898e-06	2.59535e-11
2.5	23.1	1.91391e-06	2.80234e-11
2.5	23.6	1.61222e-06	2.62658e-11
2.5	24.1	1.36206e-06	2.82378e-11
2.5	24.6	1.15395e-06	2.68872e-11
2.5	25.1	9.80288e-07	2.76414e-11
2.5	25.6	8.34924e-07	2.68016e-11
2.5	26.1	7.12897e-07	2.67906e-11
2.5	26.6	6.10173e-07	2.77338e-11
2.5	27.1	5.23465e-07	2.72939e-11
2.5	27.6	4.50086e-07	2.92611e-11
2.5	28.1	3.87831e-07	2.69577e-11
2.5	28.6	3.34886e-07	2.62575e-11
2.5	29.1	2.89753e-07	2.74557e-11
2.5	29.6	2.51191e-07	2.35963e-11
2.5	30.1	2.18173e-07	2.47684e-11
2.5	30.6	1.89841e-07	2.01707e-11
2.5	31.1	1.6548e-07	2.61736e-11
2.5	31.6	1.44493e-07	2.42759e-11
2.5	32.1	1.26376e-07	2.18053e-11
2.5	32.6	1.10709e-07	2.54863e-11
2.5	33.1	9.71354e-08	2.72339e-11
2.5	33.6	8.5355e-08	2.69028e-11
2.5	34.1	7.51135e-08	2.72121e-11
2.5	34.6	6.61951e-08	2.72364e-11
2.5	35.1	5.84164e-08	2.50832e-11
2.5	35.6	5.16213e-08	2.52772e-11
2.5	36.1	4.56762e-08	2.75423e-11
2.5	36.6	4.04673e-08	2.63861e-11
2.5	37.1	3.58968e-08	2.56862e-11
2.5	37.6	3.18808e-08	2.12544e-11
2.5	38.1	2.83473e-08	1.74897e-11
2.5	38.6	2.52342e-08	1.44294e-11
2.5	39.1	2.2488e-08	2.93774e-11
2.5	39.6	2.00623e-08	2.53948e-11
2.5	40.1	1.79172e-08	2.19724e-11
3	0.1	0.031206	2.95449e-11
3	0.6	0.13415	2.93504e-11
3	1.1	0.206719	2.94569e-11
3	1.6	0.248006	2.94675e-11
3	2.1	0.252652	2.95201e-11
3	2.6	0.222369	2.95389e-11
3	3.1	0.175992	2.96178e-11
3	3.6	0.128687	2.94191e-11
3	4.1	0.0889031	2.93729e-11
3	4.6	0.0591561	2.9405e-11
3	5.1	0.0385091	2.96019e-11
3	5.6	0.0248179	2.9574e-11
3	6.1	0.0159701	2.93273e-11
3	6.6	0.0103211	2.94514e-11
3	7.1	0.00672461	2.93536e-11
3	7.6	0.00442725	2.92724e-11
3	8.1	0.00294908	2.93349e-11
3	8.6	0.00198876	2.85368e-11
3	9.1	0.00135792	2.87692e-11
3	9.6	0.000938619	2.86563e-11
3	10.1	0.00065656	2.81503e-11
3	10.6	0.000464543	2.87227e-11
3	11.1	0.000332291	2.82102e-11
3	11.6	0.000240168	2.80689e-11
3	12.1	0.000175299	2.82275e-11
3	12.6	0.000129144	2.87348e-11
3	13.1	9.598e-05	2.90167e-11
3	13.6	7.19254e-05	2.67422e-11
3	14.1	5.43223e-05	2.94647e-11
3	14.6	4.13314e-05	2.96104e-11
3	15.1	3.16672e-05	2.88948e-11
3	15.6	2.44231e-05	2.86329e-11
3	16.1	1.8954e-05	2.80771e-11
3	16.6	1.47966e-05	2.75559e-11
3	17.1	1.1616e-05	2.70461e-11
3	17.6	9.16752e-06	2.73647e-11
3	18.1	7.27169e-06	2.85173e-11
3	18.6	5.79558e-06	2.90439e-11
3	19.1	4.64019e-06	2.95222e-11
3	19.6	3.73127e-06	2.68901e-11
3	20.1	3.01279e-06	2.95098e-11
3	20.6	2.44226e-06	2.92371e-11
3	21.1	1.98723e-06	2.88777e-11
3	21.6	1.62278e-06	2.8559e-11
3	22.1	1.32973e-06	2.93957e-11
3	22.6	1.09319e-06	2.84597e-11
3	23.1	9.01551e-07	2.68054e-11
3	23.6	7.45752e-07	2.60479e-11
3	24.1	6.18661e-07	2.64403e-11
3	24.6	5.14657e-07	2.67414e-11
3	25.1	4.29275e-07	2.89405e-11
3	25.6	3.58976e-07	2.77643e-11
3	26.1	3.00928e-07	2.8967e-11
3	26.6	2.52864e-07	2.96197e-11
3	27.1	2.12962e-07	2.63095e-11
3	27.6	1.7975e-07	2.82814e-11
3	28.1	1.52038e-07	2.6328e-11
3	28.6	1.28861e-07	2.8508e-11
3	29.1	1.09432e-07	2.9513e-11
3	29.6	9.31093e-08	2.78964e-11
3	30.1	7.93664e-08	2.66731e-11
3	30.6	6.77718e-08	2.61204e-11
3	31.1	5.79702e-08	2.59312e-11
3	31.6	4.96683e-08	2.95931e-11
3	32.1	4.26234e-08	2.87752e-11
3	32.6	3.66345e-08	2.8322e-11
3	33.1	3.15343e-08	2.86374e-11
3	33.6	2.71836e-08	2.4018e-11
3	34.1	2.34661e-08	2.56599e-11
3	34.6	2.02847e-08	2.68272e-11
3	35.1	1.75577e-08	2.77592e-11
3	35.6	1.52169e-08	2.34592e-11
3	36.1	1.32045e-08	2.54336e-11
3	36.6	1.14721e-08	2.15098e-11
3	37.1	9.97872e-09	2.73605e-11
3	37.6	8.68958e-09	2.33415e-11
3	38.1	7.57535e-09	2.79416e-11
3	38.6	6.61108e-09	2.3876e-11
3	39.1	5.77557e-09	2.86533e-11
3	39.6	5.05077e-09	2.46126e-11
3	40.1	4.42128e-09	2.90415e-11
3.5	0.1	0.0201752	2.93176e-11
3.5	0.6	0.0969722	2.9382e-11
3.5	1.1	0.159166	2.95249e-11
3.5	1.6	0.203005	2.96333e-11
3.5	2.1	0.218728	2.96185e-11
3.5	2.6	0.198723	2.95819e-11
3.5	3.1	0.15865	2.94246e-11
3.5	3.6	0.115658	2.95934e-11
3.5	4.1	0.0789765	2.94245e-11
3.5	4.6	0.0515996	2.94587e-11
3.5	5.1	0.0328205	2.94232e-11
3.5	5.6	0.0205953	2.92559e-11
3.5	6.1	0.0128738	2.92762e-11
3.5	6.6	0.00806958	2.92923e-11
3.5	7.1	0.00509451	2.89494e-11
3.5	7.6	0.0032482	2.89e-11
3.5	8.1	0.00209482	2.92653e-11
3.5	8.6	0.00136757	2.9472e-11
3.5	9.1	0.000903956	2.9066e-11
3.5	9.6	0.000604918	2.93427e-11
3.5	10.1	0.000409691	2.90446e-11
3.5	10.6	0.000280692	2.8043e-11
3.5	11.1	0.000194443	2.84864e-11
3.5	11.6	0.000136114	2.95208e-11
3.5	12.1	9.62311e-05	2.71481e-11
3.5	12.6	6.86743e-05	2.76101e-11
3.5	13.1	4.94432e-05	2.82466e-11
3.5	13.6	3.58948e-05	2.85983e-11
3.5	14.1	2.62641e-05	2.66322e-11
3.5	14.6	1.93598e-05	2.85589e-11
3.5	15.1	1.43702e-05	2.89656e-11
3.5	15.6	1.07369e-05	2.79899e-11
3.5	16.1	8.07213e-06	2.68797e-11
3.5	16.6	6.10434e-06	2.90681e-11
3.5	17.1	4.64187e-06	2.80435e-11
3.5	17.6	3.54831e-06	2.63379e-11
3.5	18.1	2.72585e-06	2.56914e-11
3.5	18.6	2.10389e-06	2.39011e-11
3.5	19.1	1.63109e-06	2.8754e-11
3.5	19.6	1.26989e-06	2.82676e-11
3.5	20.1	9.92663e-07	2.80409e-11
3.5	20.6	7.78921e-07	2.92547e-11
3.5	21.1	6.13424e-07	2.93404e-11
3.5	21.6	4.84764e-07	2.82472e-11
3.5	22.1	3.84353e-07	2.73937e-11
3.5	22.6	3.05698e-07	2.47452e-11
3.5	23.1	2.43868e-07	2.80181e-11
3.5	23.6	1.95101e-07	2.68254e-11
3.5	24.1	1.56512e-07	2.78745e-11
3.5	24.6	1.25884e-07	2.74649e-11
3.5	25.1	1.01502e-07	2.67143e-11
3.5	25.6	8.20382e-08	2.68374e-11
3.5	26.1	6.64581e-08	2.93043e-11
3.5	26.6	5.39547e-08	2.64897e-11
3.5	27.1	4.38954e-08	2.52285e-11
3.5	27.6	3.57832e-08	2.78318e-11
3.5	28.1	2.92265e-08	2.80129e-11
3.5	28.6	2.39151e-08	2.68186e-11
3.5	29.1	1.96036e-08	2.45474e-11
3.5	29.6	1.60967e-08	2.39201e-11
3.5	30.1	1.32386e-08	2.40343e-11
3.5	30.6	1.09051e-08	2.5262e-11
3.5	31.1	8.99632e-09	2.95887e-11
3.5	31.6	7.43235e-09	2.37129e-11
3.5	32.1	6.14876e-09	2.59361e-11
3.5	32.6	5.09362e-09	2.84299e-11
3.5	33.1	4.22492e-09	2.3161e-11
3.5	33.6	3.50867e-09	2.62494e-11
3.5	34.1	2.91727e-09	2.13885e-11
3.5	34.6	2.4283e-09	2.67984e-11
3.5	35.1	2.02348e-09	2.18634e-11
3.5	35.6	1.6879e-09	1.78642e-11
3.5	36.1	1.40939e-09	1.46179e-11
3.5	36.6	1.17796e-09	1.19786e-11
3.5	37.1	9.85464e-10	2.57034e-11
3.5	37.6	8.25138e-10	2.15063e-11
3.5	38.1	6.91482e-10	1.80135e-11
3.5	38.6	5.79948e-10	1.51032e-11
3.5	39.1	4.86824e-10	2.66612e-11
3.5	39.6	4.08946e-10	2.6853e-11
3.5	40.1	3.43757e-10	2.26415e-11
4	0.1	0.0106223	2.8483e-11
4	0.6	0.0602063	2.95511e-11
4	1.1	0.108267	2.95284e-11
4	1.6	0.150781	2.95431e-11
4	2.1	0.176158	2.96191e-11
4	2.6	0.16893	2.96314e-11
4	3.1	0.135557	2.94968e-11
4	3.6	0.097483	2.94256e-11
4	4.1	0.0648764	2.96155e-11
4	4.6	0.0409496	2.9363e-11
4	5.1	0.0250005	2.93346e-11
4	5.6	0.014988	2.92504e-11
4	6.1	0.0089214	2.94797e-11
4	6.6	0.00531323	2.95103e-11
4	7.1	0.0031823	2.92787e-11
4	7.6	0.00192302	2.91855e-11
4	8.1	0.00117465	2.87902e-11
4	8.6	0.00072601	2.87051e-11
4	9.1	0.000454201	2.85143e-11
4	9.6	0.000287615	2.88564e-11
4	10.1	0.000184294	2.94057e-11
4	10.6	0.000119442	2.95528e-11
4	11.1	7.82572e-05	2.9391e-11
4	11.6	5.18044e-05	2.93329e-11
4	12.1	3.46285e-05	2.65404e-11
4	12.6	2.33601e-05	2.55738e-11
4	13.1	1.58946e-05	2.91895e-11
4	13.6	1.09026e-05	2.55497e-11
4	14.1	7.5351e-06	2.57847e-11
4	14.6	5.24475e-06	2.901e-11
4	15.1	3.67487e-06	2.76696e-11
4	15.6	2.59094e-06	2.70852e-11
4	16.1	1.83739e-06	2.8866e-11
4	16.6	1.31013e-06	2.85533e-11
4	17.1	9.3896e-07	2.74615e-11
4	17.6	6.7618e-07	2.75039e-11
4	18.1	4.89136e-07	2.95621e-11
4	18.6	3.55328e-07	2.82403e-11
4	19.1	2.59145e-07	2.80586e-11
4	19.6	1.89701e-07	2.95873e-11
4	20.1	1.39348e-07	2.1044e-11
4	20.6	1.02696e-07	2.44572e-11
4	21.1	7.5916e-08	2.61021e-11
4	21.6	5.62817e-08	2.93369e-11
4	22.1	4.18378e-08	2.28757e-11
4	22.6	3.11813e-08	2.33645e-11
4	23.1	2.3293e-08	2.08293e-11
4	23.6	1.74395e-08	2.54631e-11
4	24.1	1.30783e-08	2.15032e-11
4	24.6	9.82973e-09	1.57428e-11
4	25.1	7.40122e-09	2.86762e-11
4	25.6	5.58204e-09	2.14385e-11
4	26.1	4.21651e-09	1.60562e-11
4	26.6	3.18958e-09	2.0177e-11
4	27.1	2.41591e-09	2.79118e-11
4	27.6	1.83217e-09	2.63628e-11
4	28.1	1.39101e-09	2.5109e-11
4	28.6	1.05714e-09	2.94203e-11
4	29.1	8.04159e-10	2.79959e-11
4	29.6	6.12212e-10	2.63784e-11
4	30.1	4.66412e-10	2.79529e-11
4	30.6	3.55569e-10	2.83668e-11
4	31.1	2.71248e-10	2.59313e-11
4	31.6	2.07041e-10	2.48738e-11
4	32.1	1.58151e-10	2.70553e-11
4	32.6	1.20812e-10	2.09324e-11
4	33.1	9.23971e-11	2.31369e-11
4	33.6	7.07537e-11	2.53027e-11
4	34.1	5.40911e-11	1.9497e-11
4	34.6	4.16526e-11	2.59969e-11
4	35.1	3.18525e-11	1.98759e-11
4	35.6	2.4356e-11	1.5188e-11
4	36.1	1.92754e-11	2.43297e-11
4	36.6	1.49684e-11	2.46747e-11
4	37.1	1.14767e-11	1.90449e-11
4	37.6	8.79652e-12	1.46894e-11
4	38.1	6.73952e-12	1.13217e-11
4	38.6	5.16109e-12	8.71922e-12
4	39.1	3.94972e-12	6.70677e-12
4	39.6	3.02124e-12	5.15639e-12
4	40.1	2.30948e-12	3.96077e-12
4.5	0.1	0.00392885	2.91128e-11
4.5	0.6	0.0288698	2.94545e-11
4.5	1.1	0.0598741	2.95144e-11
4.5	1.6	0.0955262	2.95965e-11
4.5	2.1	0.126594	2.95348e-11
4.5	2.6	0.13461	2.95574e-11
4.5	3.1	0.108373	2.95741e-11
4.5	3.6	0.075412	2.95411e-11
4.5	4.1	0.0476914	2.95044e-11
4.5	4.6	0.0282555	2.9297e-11
4.5	5.1	0.0160473	2.93071e-11
4.5	5.6	0.00889036	2.94909e-11
4.5	6.1	0.00486644	2.94907e-11
4.5	6.6	0.00265567	2.93352e-11
4.5	7.1	0.00145351	2.91399e-11
4.5	7.6	0.000800967	2.87342e-11
4.5	8.1	0.00044541	2.85048e-11
4.5	8.6	0.000250261	2.89858e-11
4.5	9.1	0.000142148	2.88545e-11
4.5	9.6	8.16252e-05	2.84468e-11
4.5	10.1	4.73735e-05	2.96182e-11
4.5	10.6	2.7777e-05	2.82575e-11
4.5	11.1	1.6445e-05	2.65718e-11
4.5	11.6	9.82472e-06	2.74835e-11
4.5	12.1	5.9193e-06	2.51722e-11
4.5	12.6	3.59427e-06	2.55099e-11
4.5	13.1	2.19822e-06	2.68149e-11
4.5	13.6	1.3533e-06	2.78462e-11
4.5	14.1	8.38164e-07	2.77782e-11
4.5	14.6	5.2196e-07	2.89813e-11
4.5	15.1	3.26658e-07	2.82493e-11
4.5	15.6	2.05345e-07	2.86297e-11
4.5	16.1	1.296e-07	2.86397e-11
4.5	16.6	8.20846e-08	2.93376e-11
4.5	17.1	5.21513e-08	2.67656e-11
4.5	17.6	3.32225e-08	2.65577e-11
4.5	18.1	2.11914e-08	2.82588e-11
4.5	18.6	1.35602e-08	2.50016e-11
4.5	19.1	8.69146e-09	2.64972e-11
4.5	19.6	5.57816e-09	2.84327e-11
4.5	20.1	3.58365e-09	2.86463e-11
4.5	20.6	2.30382e-09	2.23342e-11
4.5	21.1	1.48164e-09	2.54527e-11
4.5	21.6	9.53625e-10	2.41822e-11
4.5	22.1	6.13112e-10	2.50554e-11
4.5	22.6	3.93967e-10	2.2792e-11
4.5	23.1	2.52908e-10	2.06481e-11
4.5	23.6	1.61812e-10	2.7223e-11
4.5	24.1	1.03343e-10	2.31209e-11
4.5	24.6	6.53244e-11	2.42325e-11
4.5	25.1	4.09118e-11	2.87165e-11
4.5	25.6	2.59396e-11	2.3185e-11
4.5	26.1	1.65062e-11	1.52698e-11
4.5	26.6	1.19469e-11	2.00837e-11
4.5	27.1	7.6055e-12	1.29437e-11
4.5	27.6	4.82729e-12	8.30819e-12
4.5	28.1	3.04673e-12	5.27919e-12
4.5	28.6	1.90918e-12	3.31188e-12
4.5	29.1	1.19159e-12	2.06917e-12
4.5	29.6	7.40537e-13	1.28707e-12
4.5	30.1	4.58116e-13	7.9683e-13
4.5	30.6	2.82018e-13	4.90846e-13
4.5	31.1	1.72707e-13	3.00746e-13
4.5	31.6	1.05179e-13	1.83225e-13
4.5	32.1	6.36773e-14	1.10954e-13
4.5	32.6	3.83101e-14	6.67597e-14
4.5	33.1	2.28956e-14	3.98962e-14
4.5	33.6	1.3587e-14	2.3671e-14
4.5	34.1	8.00289e-15	1.39375e-14
4.5	34.6	4.67657e-15	8.14023e-15
4.5	35.1	2.70995e-15	4.71375e-15
4.5	35.6	1.56829e-15	4.58471e-15
4.5	36.1	8.90978e-16	4.57976e-15
4.5	36.6	5.01134e-16	4.57472e-15
4.5	37.1	2.78887e-16	4.56958e-15
4.5	37.6	1.53467e-16	4.56435e-15
4.5	38.1	8.34476e-17	4.559e-15
4.5	38.6	4.48033e-17	4.55355e-15
4.5	39.1	2.37334e-17	4.54796e-15
4.5	39.6	1.23935e-17	4.54225e-15
4.5	40.1	7.3101e-18	4.5364e-15
5	0.1	0.000772836	2.87221e-11
5	0.6	0.00883449	2.95868e-11
5	1.1	0.0232931	2.92869e-11
5	1.6	0.0464346	2.94129e-11
5	2.1	0.0755773	2.96153e-11
5	2.6	0.0970632	2.95888e-11
5	3.1	0.0809001	2.94531e-11
5	3.6	0.0526656	2.94782e-11
5	4.1	0.0302348	2.94337e-11
5	4.6	0.015967	2.94264e-11
5	5.1	0.0079762	2.96187e-11
5	5.6	0.00384689	2.90962e-11
5	6.1	0.0018181	2.93298e-11
5	6.6	0.000850821	2.87819e-11
5	7.1	0.000397017	2.92939e-11
5	7.6	0.000185552	2.90447e-11
5	8.1	8.70877e-05	2.7947e-11
5	8.6	4.11049e-05	2.76868e-11
5	9.1	1.95215e-05	2.88678e-11
5	9.6	9.3284e-06	2.91176e-11
5	10.1	4.48336e-06	2.83522e-11
5	10.6	2.16583e-06	2.76824e-11
5	11.1	1.05083e-06	2.7141e-11
5	11.6	5.11611e-07	2.92448e-11
5	12.1	2.49715e-07	2.88242e-11
5	12.6	1.22076e-07	2.63705e-11
5	13.1	5.97128e-08	2.6408e-11
5	13.6	2.91961e-08	2.6466e-11
5	14.1	1.42555e-08	2.48676e-11
5	14.6	6.92619e-09	2.94126e-11
5	15.1	3.36867e-09	2.5116e-11
5	15.6	1.62845e-09	2.64879e-11
5	16.1	7.82983e-10	2.60213e-11
5	16.6	3.73985e-10	2.85979e-11
5	17.1	1.77081e-10	2.92915e-11
5	17.6	8.28988e-11	2.43831e-11
5	18.1	3.81684e-11	2.87883e-11
5	18.6	1.76603e-11	2.76603e-11
5	19.1	8.00126e-12	1.25655e-11
5	19.6	3.57144e-12	5.62624e-12
5	20.1	1.56823e-12	2.47939e-12
5	20.6	6.76336e-13	1.07374e-12
5	21.1	2.85987e-13	4.56165e-13
5	21.6	1.18341e-13	1.89762e-13
5	22.1	4.78223e-14	7.71409e-14
5	22.6	1.88294e-14	3.0576e-14
5	23.1	7.20536e-15	1.17878e-14
5	23.6	2.81388e-15	5.3596e-15
5	24.1	1.12277e-15	4.5407e-15
5	24.6	3.93352e-16	4.5309e-15
5	25.1	1.32408e-16	4.52067e-15
5	25.6	4.26401e-17	4.50996e-15
5	26.1	1.30722e-17	4.49868e-15
5	26.6	3.79332e-18	4.48678e-15
5	27.1	1.03499e-18	4.47414e-15
5	27.6	2.63445e-19	4.46066e-15
5	28.1	6.19762e-20	4.4462e-15
5	28.6	1.33249e-20	4.43056e-15
5	29.1	2.58257e-21	4.4135e-15
5	29.6	4.43637e-22	4.39471e-15
5	30.1	6.61151e-23	4.37375e-15
5	30.6	8.31602e-24	4.34997e-15
5	31.1	8.51356e-25	4.32245e-15
5	31.6	6.7546e-26	4.28964e-15
5	32.1	3.88408e-27	4.24885e-15
5	32.6	1.49003e-28	4.19463e-15
5	33.1	5.32009e-30	4.11279e-15
5	33.6	3.1552e-31	3.93687e-15
5	34.1	1e-30	1e-30
5	34.6	1e-30	1e-30
5	35.1	1e-30	1e-30
5	35.6	1e-30	1e-30
5	36.1	1e-30	1e-30
5	36.6	1e-30	1e-30
5	37.1	1e-30	1e-30
5	37.6	1e-30	1e-30
5	38.1	1e-30	1e-30
5	38.6	1e-30	1e-30
5	39.1	1e-30	1e-30
5	39.6	1e-30	1e-30
5	40.1	1e-30	1e-30
